<?xml version="1.0"?>
<opencv_storage>
<opencv_ml_svm>
  <format>3</format>
  <svmType>C_SVC</svmType>
  <kernel>
    <type>LINEAR</type></kernel>
  <C>1.</C>
  <term_criteria><iterations>10000</iterations></term_criteria>
  <var_count>324</var_count>
  <class_count>2</class_count>
  <class_labels type_id="opencv-matrix">
    <rows>2</rows>
    <cols>1</cols>
    <dt>i</dt>
    <data>
      0 1</data></class_labels>
  <sv_total>1</sv_total>
  <support_vectors>
    <_>
      -3.28784823e-01 1.95057571e-01 3.75932604e-02 -1.42512798e-01
      -3.83724183e-01 -5.81829309e-01 -3.75278264e-01 -1.26607329e-01
      -6.48022652e-01 -2.43941694e-01 2.72680610e-01 1.36586815e-01
      -7.15652779e-02 -2.55039155e-01 -2.35048030e-02 -1.20609123e-02
      4.37724859e-01 2.86974490e-01 -1.42745748e-01 -2.62826204e-01
      -2.23316118e-01 -4.78011072e-02 9.34670419e-02 -5.95184378e-02
      -2.09810466e-01 -9.12050784e-01 -5.14723957e-01 3.18701677e-02
      -9.16091725e-02 -4.53786075e-01 -4.75164056e-01 -4.11622137e-01
      -5.70619047e-01 -5.35199881e-01 3.30805182e-01 -3.09123874e-01
      1.48579404e-01 3.21280807e-01 4.92307752e-01 1.56460598e-01
      3.46551150e-01 2.71472663e-01 2.82153249e-01 -3.83977562e-01
      -3.63998711e-01 2.48435825e-01 3.29846084e-01 4.15329486e-01
      2.42519721e-01 4.84817326e-01 3.66861492e-01 4.80336547e-01
      -3.26771915e-01 2.84035876e-02 -2.08529264e-01 3.69835109e-01
      -1.16447106e-01 -5.19508362e-01 -5.82648098e-01 -6.47664309e-01
      -2.42720068e-01 -3.02149981e-01 -6.41125023e-01 -3.27198237e-01
      2.14679495e-01 6.88097998e-02 -1.77055538e-01 7.79226050e-02
      -2.71892816e-01 -4.23789948e-01 -1.18303515e-01 -3.97447407e-01
      1.19860247e-02 -1.34995565e-01 -2.19876412e-02 -8.99711847e-02
      7.59416968e-02 -1.07204832e-01 -1.03831992e-01 -9.86805651e-03
      4.74695303e-02 -1.13384701e-01 -2.88892299e-01 -7.62225594e-03
      5.83455004e-02 6.37290925e-02 -2.76812047e-01 -3.82514626e-01
      -2.60111302e-01 -2.26955727e-01 4.79515761e-01 2.03192934e-01
      4.46049795e-02 9.99985933e-02 1.38269499e-01 2.22441986e-01
      1.86087355e-01 -4.94200438e-01 -2.17340305e-01 3.24270010e-01
      3.48886102e-01 -2.09762305e-01 -9.08862241e-03 -1.31212667e-01
      -2.03910917e-01 -1.29075237e-02 -1.16766915e-01 2.23064557e-01
      -9.05689225e-02 -2.13576615e-01 -5.41209131e-02 1.80887908e-01
      5.62614918e-01 2.30081916e-01 -9.10450816e-02 -7.56269217e-01
      -7.06018567e-01 2.38491505e-01 -2.46835366e-01 -7.28547812e-01
      -3.19834977e-01 -8.13317224e-02 -3.81723553e-01 -4.93554473e-01
      2.14123745e-02 -1.22387417e-01 -2.34085336e-01 -1.04336135e-01
      -1.45489693e-01 -1.53186902e-01 2.78003961e-01 1.86138734e-01
      -1.89516500e-01 -1.87777638e-01 -3.93074244e-01 -5.35904393e-02
      -1.47923142e-01 -4.83597875e-01 -4.22844023e-01 7.76163563e-02
      -1.18301352e-02 -1.39786556e-01 2.17845768e-01 3.77409130e-01
      1.00723960e-01 4.14916515e-01 -4.87533182e-01 -6.59423411e-01
      -8.54258120e-01 -9.80547845e-01 -3.78512055e-01 4.97416891e-02
      -3.91686201e-01 -7.14512989e-02 3.85755211e-01 -6.35552332e-02
      -1.94244385e-01 -2.69069970e-01 -3.93147051e-01 -4.10785764e-01
      2.08495572e-01 -1.41333148e-01 9.33993421e-03 9.32822004e-02
      -7.61091590e-01 -7.25083411e-01 -5.48051357e-01 -6.13418102e-01
      -2.40288898e-01 3.12705308e-01 3.63882899e-01 5.55208214e-02
      1.67239517e-01 -5.42773008e-01 -4.55734223e-01 -1.75896689e-01
      -2.35554904e-01 -1.06347337e-01 9.31695551e-02 -4.86647002e-02
      2.57942587e-01 1.84144735e-01 1.34543076e-01 1.46358088e-01
      2.67130524e-01 2.60634571e-01 1.88567325e-01 -2.63050735e-01
      1.50350025e-02 -2.54644938e-02 3.49992275e-01 -2.40369424e-01
      3.01888615e-01 1.43840238e-01 1.45184964e-01 -3.02357469e-02
      -3.76339614e-01 -4.21046615e-02 -3.53907913e-01 -2.75429189e-01
      -3.49085599e-01 -1.56966358e-01 -3.94830294e-02 -1.38777688e-01
      -2.28018582e-01 -1.10595658e-01 -9.07640159e-02 -6.61879003e-01
      -2.26180270e-01 -3.98062527e-01 4.57946151e-01 1.01703830e-01
      -1.53041586e-01 -5.53551257e-01 -2.11988881e-01 -5.07363439e-01
      -3.93364839e-02 2.59573996e-01 -1.42255113e-01 -4.56380472e-02
      1.26432031e-01 1.81142718e-01 -3.40421587e-01 -3.10432166e-01
      -4.37600374e-01 1.05074324e-01 -8.41112062e-02 -6.21822596e-01
      -2.03213975e-01 1.57716691e-01 9.94414687e-02 -6.17456548e-02
      1.44032553e-01 3.14498954e-02 -1.42588079e-01 4.18191880e-01
      1.20638218e-02 -1.44372195e-01 1.38416346e-02 5.48305988e-01
      -3.36468518e-01 -6.94813609e-01 -4.67725188e-01 1.39431283e-01
      -3.21038157e-01 -6.08310401e-01 -3.04731131e-01 1.95814118e-01
      4.93640155e-01 2.32831776e-01 1.72625676e-01 1.96491301e-01
      -3.55553776e-02 -2.28730381e-01 -7.17365861e-01 -5.46268821e-01
      -4.44433182e-01 -5.27930439e-01 -4.64695007e-01 -1.81860325e-03
      -2.52802800e-02 -1.04015522e-01 -3.27126503e-01 -5.73944926e-01
      -8.67845833e-01 -2.67137259e-01 -3.35112870e-01 -2.60890424e-01
      8.85836855e-02 -3.37251984e-02 3.23762089e-01 3.26459631e-02
      2.38432903e-02 2.54142463e-01 2.28444338e-01 7.21167848e-02
      1.81691378e-01 3.06657493e-01 2.54685074e-01 -2.49766737e-01
      -4.30638373e-01 -3.24934691e-01 -3.10309350e-01 1.55887455e-02
      -5.21419287e-01 -6.28867507e-01 3.34837288e-01 3.10456485e-01
      -7.23970830e-02 -5.69020696e-02 2.30145812e-01 1.81755990e-01
      2.41376132e-01 7.27645084e-02 -3.52161378e-02 1.41048804e-01
      1.76646426e-01 -4.31335688e-01 7.79311657e-02 6.96888506e-01
      7.85799265e-01 2.20269680e-01 6.93728961e-03 -2.66405314e-01
      2.14103103e-01 -2.23348349e-01 -2.77202338e-01 -3.60104501e-01
      2.83756137e-01 8.99271294e-03 -6.59700632e-02 -6.55272305e-01
      -1.23561227e+00 -2.64625907e-01 -1.28900632e-01 -9.03325319e-01
      -4.38894033e-01 4.04219806e-01 9.64036956e-02 -6.45737648e-02
      -1.83086872e-01 -1.82794943e-01 -9.70013499e-01 -9.50100720e-01</_></support_vectors>
  <uncompressed_sv_total>68</uncompressed_sv_total>
  <uncompressed_support_vectors>
    <_>
      2.25724041e-01 2.25449026e-01 1.80513561e-01 1.16751514e-01
      1.55405492e-01 1.85791075e-01 2.03235596e-01 2.29246899e-01
      2.29246899e-01 9.77226347e-02 1.03048220e-01 9.73832682e-02
      9.19257700e-02 1.53226614e-01 1.93613768e-01 2.29246899e-01
      2.29246899e-01 1.95299566e-01 6.74278885e-02 4.62527648e-02
      3.38523276e-02 3.74635309e-02 7.71581903e-02 1.11399159e-01
      1.25842050e-01 2.29246899e-01 2.11546317e-01 6.99972361e-02
      6.49419799e-02 7.01392815e-02 6.93446696e-02 1.80310741e-01
      2.29246899e-01 2.29246899e-01 2.29246899e-01 2.29246899e-01
      1.02708764e-01 5.68604991e-02 6.46502301e-02 5.51279299e-02
      7.42139369e-02 7.12970197e-02 1.80718198e-01 2.87361205e-01
      2.80170649e-01 7.72662312e-02 3.26146409e-02 3.43078785e-02
      2.69887671e-02 3.97216864e-02 3.82007398e-02 1.29668564e-01
      2.87361205e-01 2.36557588e-01 1.83114246e-01 1.22395746e-01
      1.03854828e-01 9.14164260e-02 1.72422767e-01 1.63030043e-01
      2.00267255e-01 2.87361205e-01 2.87361205e-01 1.81334317e-01
      8.87492225e-02 7.24564642e-02 7.46859387e-02 8.69612768e-02
      1.05013087e-01 1.99817911e-01 2.87361205e-01 2.87361205e-01
      1.08609341e-01 7.55702928e-02 8.93495679e-02 9.96408463e-02
      1.50519654e-01 1.10829189e-01 1.50194243e-01 2.13279769e-01
      1.47669047e-01 1.35924384e-01 1.09980449e-01 1.97876811e-01
      1.82917655e-01 2.35124111e-01 1.96003735e-01 2.35124111e-01
      2.35124111e-01 1.75509334e-01 6.78312778e-02 4.70927022e-02
      1.06055677e-01 1.25211790e-01 1.69245914e-01 1.69407934e-01
      1.19504742e-01 2.35124111e-01 1.58736542e-01 1.05108522e-01
      9.08978879e-02 2.35124111e-01 2.35124111e-01 2.35124111e-01
      2.35124111e-01 1.77758455e-01 1.76937193e-01 9.99258161e-02
      1.20462880e-01 7.45277628e-02 4.53971624e-02 4.14431728e-02
      9.15747359e-02 1.44403681e-01 1.62768513e-01 2.48206213e-01
      2.48206213e-01 1.21653929e-01 1.13146164e-01 1.25105128e-01
      1.09512925e-01 2.34964460e-01 2.48206213e-01 2.48206213e-01
      2.48206213e-01 2.48206213e-01 1.41200706e-01 7.61617571e-02
      4.74236868e-02 5.15508316e-02 5.52456081e-02 9.15944427e-02
      1.87512338e-01 2.48206213e-01 2.48206213e-01 1.21117987e-01
      8.70287716e-02 1.35181472e-01 1.75365984e-01 7.32534900e-02
      8.35413039e-02 1.74821362e-01 2.48206213e-01 2.48206213e-01
      1.87486023e-01 1.25767022e-01 1.18152745e-01 1.08188987e-01
      1.57610476e-01 1.47053748e-01 1.49253890e-01 2.44174361e-01
      2.44174361e-01 2.06720322e-01 1.06640339e-01 9.14956704e-02
      1.03949279e-01 9.69013572e-02 1.04960680e-01 1.64510146e-01
      2.44174361e-01 2.44174361e-01 9.80043188e-02 9.35818478e-02
      1.83164045e-01 2.44174361e-01 1.67363852e-01 1.06176592e-01
      1.08862422e-01 1.81463838e-01 1.72672629e-01 1.37295410e-01
      1.01166256e-01 1.32391542e-01 1.73636392e-01 2.03380808e-01
      1.27594262e-01 1.40771061e-01 2.44174361e-01 2.31712297e-01
      6.56757727e-02 4.00872417e-02 1.10415503e-01 1.23987779e-01
      1.28830388e-01 1.38351232e-01 1.00779444e-01 2.07583129e-01
      1.45462126e-01 9.65739265e-02 6.98464960e-02 2.48659566e-01
      1.86776191e-01 1.87126368e-01 1.83134273e-01 1.03047259e-01
      1.24836728e-01 1.36589810e-01 1.08561613e-01 7.76704177e-02
      2.03370526e-01 1.78018749e-01 1.32423744e-01 1.55433908e-01
      1.92576036e-01 2.48659566e-01 2.48659566e-01 2.19189137e-01
      1.02452300e-01 2.48659566e-01 1.79554805e-01 1.19219892e-01
      1.52813807e-01 1.49652094e-01 2.48659566e-01 2.48659566e-01
      1.29021361e-01 7.18387812e-02 5.48397340e-02 6.93336651e-02
      8.22374746e-02 1.31416976e-01 1.86462134e-01 2.38710999e-01
      2.38710999e-01 1.12017475e-01 8.35716724e-02 1.60284102e-01
      2.20056191e-01 1.19690470e-01 1.17146201e-01 1.61906794e-01
      2.38710999e-01 2.38710999e-01 7.64815211e-02 7.10562021e-02
      1.51754528e-01 1.56531915e-01 2.32870147e-01 2.38710999e-01
      1.40566424e-01 1.39132991e-01 1.12392150e-01 8.36615488e-02
      1.45857543e-01 2.38710999e-01 2.38710999e-01 2.38710999e-01
      2.38710999e-01 1.59021035e-01 1.40804574e-01 1.03144296e-01
      8.55166912e-02 1.17051035e-01 2.26992324e-01 2.26992324e-01
      2.07708582e-01 1.23001389e-01 1.23870865e-01 1.61825389e-01
      1.46355554e-01 1.12732783e-01 1.09317094e-01 1.79320842e-01
      2.02105373e-01 2.26992324e-01 1.58644632e-01 2.15175852e-01
      2.26992324e-01 2.07219824e-01 1.44249976e-01 2.13546559e-01
      2.26992324e-01 1.83367252e-01 1.24008752e-01 9.83448848e-02
      1.12714551e-01 1.24081962e-01 1.51101261e-01 1.07767522e-01
      1.04532748e-01 1.40897065e-01 9.85648260e-02 1.23616256e-01
      1.08082369e-01 2.26992324e-01 2.26992324e-01 1.66306913e-01
      9.79541317e-02 7.71447197e-02 1.50819674e-01 1.27232105e-01
      9.41967294e-02 1.08487085e-01 1.63509041e-01 2.48065904e-01
      2.48065904e-01 1.95252642e-01 8.59880298e-02 1.62912667e-01
      1.23309433e-01 9.33634490e-02 1.11959733e-01 1.26001880e-01
      2.48065904e-01 2.48065904e-01 1.59428284e-01 1.34107262e-01
      1.28234699e-01 1.03765458e-01 1.07429422e-01 7.41814375e-02
      1.59176767e-01 2.48065904e-01 2.48065904e-01 2.48065904e-01
      1.55381903e-01 1.46861985e-01 9.10060778e-02 1.23372622e-01
      1.10193178e-01 1.51948437e-01 2.48065904e-01 2.48065904e-01</_>
    <_>
      1.09761387e-01 1.02832317e-01 1.12096071e-01 7.07372949e-02
      1.58419505e-01 2.02576220e-01 2.68466234e-01 2.68466234e-01
      2.68466234e-01 9.63906944e-02 7.95531720e-02 8.90351161e-02
      5.63368946e-02 1.64145276e-01 2.37488672e-01 2.68466234e-01
      2.68466234e-01 2.53961623e-01 7.69439042e-02 4.99474257e-02
      4.73426133e-02 2.51045283e-02 4.55617867e-02 6.97072521e-02
      1.10504456e-01 2.16375187e-01 1.69459283e-01 1.15686372e-01
      7.58957863e-02 9.87956300e-02 5.49326725e-02 1.02618165e-01
      1.51568532e-01 2.05919027e-01 2.68466234e-01 2.64933556e-01
      9.36350971e-02 6.71809018e-02 7.89877325e-02 2.90542338e-02
      4.00021747e-02 6.23466931e-02 1.08826444e-01 2.97828406e-01
      2.55172938e-01 7.63035491e-02 4.51138206e-02 4.55913953e-02
      1.76942665e-02 2.34057680e-02 3.52251679e-02 8.97230059e-02
      2.97828406e-01 2.30101019e-01 1.76865086e-01 1.55448854e-01
      2.22519934e-01 9.72741023e-02 1.01788670e-01 1.21507898e-01
      1.66293368e-01 2.97828406e-01 2.97828406e-01 1.76714107e-01
      1.18780427e-01 1.48702309e-01 7.97262564e-02 7.64316469e-02
      9.56454054e-02 1.81589127e-01 2.97828406e-01 2.97828406e-01
      1.09053262e-01 5.05406149e-02 5.55481389e-02 7.37331808e-02
      1.11993760e-01 8.75787586e-02 1.41990110e-01 2.35796496e-01
      1.76426113e-01 1.17273539e-01 7.90855363e-02 1.74878269e-01
      1.72378391e-01 2.36358166e-01 1.85949475e-01 2.42153764e-01
      2.42153764e-01 1.85946941e-01 7.68466368e-02 3.90617512e-02
      5.80845959e-02 1.18284374e-01 1.69426724e-01 1.32896572e-01
      1.93933919e-01 2.42153764e-01 2.42153764e-01 8.15994218e-02
      8.26790407e-02 2.42153764e-01 2.07622454e-01 2.42153764e-01
      2.14773729e-01 1.72537863e-01 1.77715480e-01 1.32296443e-01
      1.01786442e-01 6.58707172e-02 6.20437972e-02 4.72431555e-02
      4.70395237e-02 7.36581907e-02 1.40093088e-01 2.16377243e-01
      1.95368543e-01 1.56708181e-01 1.12336561e-01 1.69086710e-01
      1.07937276e-01 1.12303063e-01 1.97407275e-01 2.49783114e-01
      2.49783114e-01 2.49783114e-01 8.80888328e-02 1.00555159e-01
      1.63137987e-01 7.96162933e-02 8.00248310e-02 9.53486413e-02
      1.29411325e-01 2.17067748e-01 1.68905988e-01 1.20120838e-01
      2.20366508e-01 2.49783114e-01 1.61355644e-01 1.37326851e-01
      2.49783114e-01 2.49783114e-01 2.49783114e-01 1.79252431e-01
      1.49214089e-01 1.78528965e-01 2.60640889e-01 1.18549675e-01
      1.18864588e-01 1.36626482e-01 1.58754811e-01 2.60640889e-01
      2.60640889e-01 1.59367457e-01 1.33442387e-01 1.76638186e-01
      1.09689355e-01 1.21982560e-01 1.32305935e-01 1.72708333e-01
      2.60640889e-01 2.60640889e-01 1.09264277e-01 2.16796175e-01
      2.56583601e-01 8.52601901e-02 8.74653235e-02 1.45213962e-01
      2.06693634e-01 8.39939564e-02 8.21575373e-02 7.89203942e-02
      1.30938292e-01 1.78766340e-01 1.16623923e-01 1.16343357e-01
      1.45169407e-01 2.07833916e-01 1.07168756e-01 8.57696459e-02
      5.02286926e-02 3.33527736e-02 5.62173426e-02 1.25959188e-01
      1.47739485e-01 1.21269658e-01 1.40305132e-01 2.52672911e-01
      2.02636018e-01 6.48365840e-02 6.63406551e-02 1.78562015e-01
      1.46118820e-01 1.95148647e-01 1.53145432e-01 9.79164764e-02
      1.15216427e-01 9.86014828e-02 1.44461378e-01 1.35876805e-01
      1.90370500e-01 1.87314615e-01 1.62867770e-01 1.52043656e-01
      2.01172516e-01 2.52672911e-01 2.52672911e-01 2.52672911e-01
      1.46078959e-01 1.86529726e-01 1.35546952e-01 1.19183503e-01
      1.44233197e-01 1.68001100e-01 2.52672911e-01 2.52672911e-01
      9.78718102e-02 1.10158280e-01 1.71498686e-01 7.72120729e-02
      7.42885843e-02 7.82805458e-02 8.96292031e-02 1.32303387e-01
      1.19205393e-01 1.22280538e-01 2.09299639e-01 2.22445115e-01
      1.38916150e-01 1.03549317e-01 2.22445115e-01 2.22445115e-01
      1.83560878e-01 1.41125843e-01 2.18317255e-01 2.03079432e-01
      2.22445115e-01 1.62654653e-01 2.22445115e-01 1.74855918e-01
      1.22326128e-01 1.15504086e-01 1.43613815e-01 2.04284728e-01
      2.22445115e-01 2.22445115e-01 1.75054163e-01 1.47602141e-01
      1.37509689e-01 1.80900216e-01 1.77471131e-01 1.68450028e-01
      2.18129933e-01 2.30666161e-01 2.30666161e-01 1.08242579e-01
      1.17231786e-01 2.25788459e-01 2.30666161e-01 1.47889838e-01
      1.66821450e-01 1.36394739e-01 1.95357591e-01 2.30666161e-01
      2.06901729e-01 1.78907543e-01 2.21384197e-01 2.30666161e-01
      1.62608325e-01 1.36292666e-01 1.31176591e-01 1.16134711e-01
      1.24010220e-01 5.46724238e-02 5.41855656e-02 6.44760132e-02
      1.61408871e-01 1.90932319e-01 1.66515797e-01 9.55519453e-02
      8.14541429e-02 9.60268155e-02 1.39065206e-01 1.96566254e-01
      1.30657330e-01 2.07175255e-01 1.54645875e-01 1.38070449e-01
      1.34934604e-01 1.21119872e-01 1.66482121e-01 1.44996494e-01
      1.28873661e-01 1.11186624e-01 1.60136193e-01 2.35027984e-01
      2.35027984e-01 2.35027984e-01 1.26482561e-01 1.33028448e-01
      1.01507984e-01 9.58741009e-02 1.05931759e-01 1.44220874e-01
      2.35027984e-01 2.35027984e-01 1.16147831e-01 1.00427620e-01
      1.22357287e-01 1.54161021e-01 1.99314624e-01 1.39661506e-01
      1.87949598e-01 2.05612198e-01 1.52300790e-01 1.70747355e-01
      1.28257319e-01 1.28563672e-01 1.26836658e-01 1.64463252e-01
      1.29996851e-01 2.12204918e-01 2.35027984e-01 2.35027984e-01</_>
    <_>
      2.45793775e-01 2.13832408e-01 1.67915061e-01 8.22184831e-02
      1.65585309e-01 1.69346243e-01 1.56489670e-01 2.21642584e-01
      2.45793775e-01 2.21286684e-01 1.53210267e-01 1.17553130e-01
      7.55937099e-02 1.27941310e-01 1.33275077e-01 2.45793775e-01
      2.45793775e-01 2.45793775e-01 8.49632695e-02 9.97023880e-02
      8.33848342e-02 3.96549143e-02 5.81959561e-02 7.52437860e-02
      1.02495916e-01 2.45793775e-01 2.05500349e-01 8.94805938e-02
      6.49351403e-02 7.22522289e-02 4.90151048e-02 6.95257708e-02
      1.09779224e-01 2.31365606e-01 2.45793775e-01 2.45793775e-01
      6.97951168e-02 4.19631973e-02 6.16014302e-02 3.34714651e-02
      2.77778096e-02 4.10585962e-02 1.03847891e-01 3.14644545e-01
      3.14644545e-01 5.73043823e-02 2.65862010e-02 2.88927183e-02
      1.39958747e-02 1.65766515e-02 2.10135896e-02 5.76596297e-02
      3.14644545e-01 3.02019358e-01 1.23990305e-01 5.80470227e-02
      9.01023746e-02 7.42540807e-02 1.21957898e-01 1.54766560e-01
      1.98869348e-01 3.14644545e-01 3.14644545e-01 1.37077555e-01
      5.34754582e-02 5.76914772e-02 5.71788587e-02 9.14883614e-02
      9.31206644e-02 1.50800481e-01 3.14644545e-01 3.14644545e-01
      1.08113036e-01 8.01130161e-02 7.55850375e-02 9.76824388e-02
      1.28155440e-01 1.04610197e-01 1.53215066e-01 2.36678913e-01
      2.09273234e-01 1.13149717e-01 1.00026608e-01 1.64143816e-01
      1.48098335e-01 1.84443906e-01 1.53060436e-01 2.36678913e-01
      2.36678913e-01 2.16687545e-01 5.75530343e-02 3.87992300e-02
      7.89235160e-02 1.08268850e-01 1.56639531e-01 1.49980277e-01
      1.38745606e-01 2.36678913e-01 1.81071386e-01 6.70327321e-02
      7.14064911e-02 2.36678913e-01 2.36678913e-01 2.36678913e-01
      2.29212657e-01 2.20561743e-01 2.36678913e-01 1.13143206e-01
      1.27849072e-01 1.03752434e-01 7.15909153e-02 3.62235978e-02
      6.36195317e-02 9.14062858e-02 1.53877333e-01 3.22468638e-01
      3.22468638e-01 1.55153558e-01 6.87208623e-02 8.74357894e-02
      6.27502501e-02 9.19875801e-02 1.66153476e-01 3.22468638e-01
      3.22468638e-01 3.22468638e-01 7.43232220e-02 7.07863346e-02
      6.14834502e-02 3.34910117e-02 5.74456789e-02 5.69254793e-02
      1.19212456e-01 2.41833493e-01 1.60201564e-01 1.06178269e-01
      7.51711205e-02 8.49236995e-02 3.58774252e-02 3.88367139e-02
      6.08150959e-02 1.42641336e-01 3.18926930e-01 2.40302116e-01
      1.25802994e-01 6.39922842e-02 1.08930334e-01 8.68391395e-02
      1.40701354e-01 1.75860092e-01 1.98700935e-01 2.65787393e-01
      2.65787393e-01 1.45328224e-01 6.42947182e-02 8.65614712e-02
      9.38841999e-02 1.21786647e-01 1.23203121e-01 1.68185487e-01
      2.65787393e-01 2.65787393e-01 8.74674618e-02 1.04472794e-01
      1.57418653e-01 1.09351151e-01 1.01194009e-01 1.31445795e-01
      1.22600257e-01 2.65787393e-01 2.41749674e-01 8.66504610e-02
      1.07469581e-01 2.07797229e-01 1.80685714e-01 1.23893939e-01
      1.36422828e-01 1.21523514e-01 2.65787393e-01 2.10201263e-01
      5.95334880e-02 3.49300280e-02 7.07795024e-02 9.40838754e-02
      1.04981758e-01 1.23872072e-01 1.06677204e-01 2.57242799e-01
      1.48746595e-01 9.07548890e-02 6.86775520e-02 2.32107133e-01
      1.89884394e-01 1.55992106e-01 1.55756220e-01 1.14319488e-01
      1.51124120e-01 1.01151295e-01 1.35875061e-01 9.43953320e-02
      1.97555214e-01 1.78339317e-01 1.18350893e-01 1.53128773e-01
      1.91652298e-01 2.57242799e-01 2.57242799e-01 2.00324044e-01
      1.30982935e-01 2.46156663e-01 1.55195117e-01 9.78307724e-02
      1.45779639e-01 2.12764338e-01 2.57242799e-01 2.57242799e-01
      1.38387397e-01 1.45713285e-01 1.44000992e-01 7.87322223e-02
      1.24531023e-01 1.09381415e-01 1.91503629e-01 2.41134763e-01
      2.41134763e-01 1.87026218e-01 1.59184635e-01 1.51285887e-01
      6.61290288e-02 6.67565390e-02 9.87642333e-02 2.05564633e-01
      2.41134763e-01 2.41134763e-01 1.25916302e-01 2.00113818e-01
      2.04276308e-01 1.19173802e-01 1.71659619e-01 1.01384439e-01
      6.59832060e-02 9.92018059e-02 1.14916302e-01 1.83913469e-01
      2.41134763e-01 2.41134763e-01 1.11722253e-01 1.55696154e-01
      1.07798696e-01 1.41021177e-01 2.17278436e-01 2.12038830e-01
      9.01935473e-02 1.52905852e-01 1.88161552e-01 1.14468887e-01
      9.93021429e-02 1.95575058e-01 1.80376634e-01 2.20657155e-01
      1.98847741e-01 8.91583338e-02 1.75759584e-01 2.20657155e-01
      1.91387162e-01 1.19762190e-01 1.79050222e-01 1.56184018e-01
      2.20657155e-01 1.64083019e-01 1.21427312e-01 2.20657155e-01
      2.20657155e-01 9.24752131e-02 1.06902510e-01 2.20657155e-01
      2.20657155e-01 8.56442079e-02 7.27624148e-02 1.30548820e-01
      2.20657155e-01 2.20657155e-01 9.32622850e-02 8.66059512e-02
      2.20657155e-01 2.13854894e-01 6.85956925e-02 8.04137215e-02
      1.10014997e-01 8.26119706e-02 1.70892984e-01 1.52084365e-01
      1.01535380e-01 1.35385096e-01 1.65442884e-01 2.48131856e-01
      2.48131856e-01 1.55473471e-01 1.02732822e-01 1.77085206e-01
      1.17765956e-01 7.65039101e-02 1.16315648e-01 1.94956586e-01
      2.48131856e-01 2.48131856e-01 1.06579341e-01 8.76366794e-02
      1.44410431e-01 1.10767730e-01 1.05225950e-01 1.59988925e-01
      1.96650326e-01 2.24726677e-01 1.97067335e-01 1.78498134e-01
      1.16084836e-01 1.63420901e-01 1.18930876e-01 1.10974811e-01
      1.38189092e-01 1.70430839e-01 2.48131856e-01 2.48131856e-01</_>
    <_>
      1.52828708e-01 6.67562410e-02 5.61473928e-02 7.34523386e-02
      2.26323545e-01 1.41270950e-01 2.46546254e-01 2.46546254e-01
      2.46546254e-01 1.20877407e-01 6.67339116e-02 6.47034273e-02
      8.16299096e-02 2.22056493e-01 1.06729418e-01 1.98107883e-01
      2.46546254e-01 2.46546254e-01 1.17015675e-01 7.20529482e-02
      1.30383477e-01 1.07284747e-01 1.08154304e-01 5.23282401e-02
      9.38069522e-02 2.42215395e-01 2.12371409e-01 1.43311754e-01
      1.15350343e-01 2.14731991e-01 1.83787838e-01 1.77832082e-01
      7.93180466e-02 1.13537513e-01 2.46546254e-01 2.37667441e-01
      2.09477633e-01 1.07138515e-01 1.16466172e-01 4.93195839e-02
      4.68712635e-02 4.22764570e-02 7.49335960e-02 2.58400708e-01
      2.58400708e-01 1.56600520e-01 6.34314343e-02 6.42925277e-02
      2.63453908e-02 2.93722805e-02 3.34886797e-02 6.65024891e-02
      2.58400708e-01 2.58400708e-01 2.32823953e-01 1.19815513e-01
      1.32109672e-01 1.21200018e-01 1.30092755e-01 1.29605994e-01
      1.46170601e-01 2.58400708e-01 2.58400708e-01 2.01519772e-01
      9.36596319e-02 1.17659874e-01 1.72733918e-01 1.59665212e-01
      1.73939764e-01 1.94702253e-01 2.58400708e-01 2.58400708e-01
      6.86062649e-02 3.59985232e-02 5.87760285e-02 1.01366736e-01
      1.28065512e-01 1.06647067e-01 1.30099654e-01 1.86439812e-01
      1.51496261e-01 1.04454622e-01 9.11294743e-02 2.01050043e-01
      2.26309091e-01 2.26309091e-01 2.26309091e-01 2.26309091e-01
      2.04851598e-01 1.55660689e-01 9.31731313e-02 7.45979846e-02
      1.16691135e-01 2.23810166e-01 2.03478321e-01 1.60697520e-01
      1.52494580e-01 2.25996867e-01 1.93306863e-01 1.66414425e-01
      1.38655066e-01 2.26309091e-01 2.26309091e-01 2.26309091e-01
      1.94352299e-01 1.35799870e-01 1.08454175e-01 1.39568686e-01
      1.11002214e-01 9.34914723e-02 1.78067446e-01 1.48505300e-01
      8.08528364e-02 4.21318337e-02 9.11304429e-02 2.10676089e-01
      2.05251530e-01 1.33497849e-01 1.44097954e-01 2.18591690e-01
      2.18591690e-01 1.57342643e-01 8.79125446e-02 1.22622192e-01
      2.18591690e-01 2.11443320e-01 1.30941987e-01 1.73761994e-01
      1.90556616e-01 2.18591690e-01 2.18591690e-01 1.21240467e-01
      1.29707769e-01 1.66071787e-01 1.63796365e-01 1.64416268e-01
      2.18591690e-01 2.18591690e-01 2.18591690e-01 2.18543962e-01
      1.19564049e-01 1.19944490e-01 1.20920427e-01 1.38223723e-01
      1.37946531e-01 8.14492926e-02 9.48883146e-02 1.14219181e-01
      1.37316272e-01 1.28521159e-01 1.39878526e-01 2.16481999e-01
      2.19766170e-01 1.44616276e-01 8.48525986e-02 1.11912027e-01
      1.86353832e-01 1.74624845e-01 1.60870329e-01 1.84360847e-01
      2.19766170e-01 2.19766170e-01 1.00216687e-01 8.91343504e-02
      1.41897216e-01 1.56373218e-01 1.51923627e-01 1.30629942e-01
      2.19766170e-01 2.19766170e-01 1.33413807e-01 1.90671787e-01
      1.19472370e-01 1.82880536e-01 2.16428697e-01 1.75292596e-01
      1.18396938e-01 2.19766170e-01 2.19766170e-01 2.19766170e-01
      7.97101855e-02 6.53265193e-02 9.86942351e-02 1.62559152e-01
      1.34627670e-01 1.05582193e-01 1.12294495e-01 1.54438823e-01
      1.47285312e-01 1.37739986e-01 1.03749849e-01 2.02407211e-01
      1.93629324e-01 1.51834399e-01 1.22129396e-01 1.04661107e-01
      1.50721744e-01 1.79792345e-01 2.58341551e-01 1.27323598e-01
      1.39917269e-01 1.52117029e-01 1.08535625e-01 1.02151655e-01
      1.93732187e-01 2.58341551e-01 2.58341551e-01 2.58341551e-01
      1.52867556e-01 1.72587171e-01 1.57081440e-01 1.14700548e-01
      1.07072107e-01 1.71681225e-01 2.58341551e-01 2.58341551e-01
      1.13274865e-01 1.80650547e-01 1.93766132e-01 2.22744584e-01
      2.22744584e-01 1.43100619e-01 1.41454428e-01 1.39236078e-01
      1.14767842e-01 1.59137771e-01 2.22744584e-01 2.22744584e-01
      2.22744584e-01 2.03299478e-01 1.22271918e-01 1.28281459e-01
      1.14481211e-01 1.19892083e-01 1.02132007e-01 1.53413028e-01
      2.22744584e-01 2.22744584e-01 2.22744584e-01 1.41478091e-01
      1.20083913e-01 8.63894746e-02 7.73153380e-02 9.29886624e-02
      1.57021895e-01 2.12790877e-01 2.22744584e-01 2.22744584e-01
      1.56740248e-01 1.33879215e-01 1.01656474e-01 8.22929889e-02
      1.25825211e-01 1.00269951e-01 1.53243199e-01 1.77547753e-01
      1.73215002e-01 1.44633740e-01 2.29204282e-01 2.29204282e-01
      1.56714648e-01 2.29204282e-01 1.27626464e-01 1.90429762e-01
      2.27022171e-01 1.98453084e-01 1.32976040e-01 2.29204282e-01
      2.29204282e-01 2.29204282e-01 9.61687788e-02 5.55909947e-02
      6.30149767e-02 9.89957824e-02 1.76952139e-01 1.13546580e-01
      1.31329685e-01 1.25909701e-01 1.22847296e-01 1.47688299e-01
      9.02606845e-02 1.02871604e-01 1.63360387e-01 2.29204282e-01
      1.76033109e-01 2.07006603e-01 1.57853663e-01 1.67161807e-01
      2.56714791e-01 1.12900257e-01 1.07681870e-01 1.00849614e-01
      7.30189234e-02 8.78704339e-02 2.00888395e-01 2.56714791e-01
      2.56714791e-01 2.56714791e-01 1.34451076e-01 1.29717842e-01
      1.14465177e-01 8.16054791e-02 9.22837257e-02 1.81080297e-01
      2.56714791e-01 2.56714791e-01 1.49444491e-01 9.46117416e-02
      8.21471214e-02 5.63607588e-02 7.34478533e-02 1.11563891e-01
      2.19530463e-01 1.90263554e-01 2.30447680e-01 2.16117218e-01
      1.18430689e-01 8.08565095e-02 4.75008450e-02 5.09860963e-02
      8.03293809e-02 1.54995859e-01 2.30369478e-01 2.56714791e-01</_>
    <_>
      1.04531564e-01 7.58662522e-02 6.91561550e-02 9.00765508e-02
      1.66482925e-01 1.88141927e-01 2.51426458e-01 2.51426458e-01
      2.51426458e-01 1.23086810e-01 5.94044738e-02 6.31968826e-02
      7.28233457e-02 1.56040251e-01 1.84479281e-01 2.51426458e-01
      2.51426458e-01 2.51426458e-01 1.23636864e-01 8.00003409e-02
      5.60759604e-02 3.50458883e-02 5.42130060e-02 1.03968576e-01
      1.75023377e-01 2.51426458e-01 2.47999296e-01 1.53890371e-01
      1.27664149e-01 1.20505445e-01 7.77366161e-02 9.56739634e-02
      1.51504397e-01 1.57808125e-01 2.51426458e-01 2.51426458e-01
      1.37634724e-01 5.82976155e-02 4.47730571e-02 3.09598017e-02
      5.08244745e-02 4.84890901e-02 1.26812264e-01 3.00223976e-01
      3.00223976e-01 1.37839705e-01 6.91048875e-02 4.93574031e-02
      2.86223590e-02 3.40648182e-02 3.52572836e-02 1.16970152e-01
      3.00223976e-01 3.00223976e-01 1.09903105e-01 8.90060514e-02
      1.63008943e-01 1.35300443e-01 9.56693366e-02 9.56008732e-02
      1.24543428e-01 2.85568595e-01 2.67574936e-01 1.72928348e-01
      8.90515596e-02 1.36335149e-01 1.20289929e-01 8.04875866e-02
      7.74384886e-02 1.77658170e-01 3.00223976e-01 3.00223976e-01
      1.28349245e-01 6.00335412e-02 2.58645900e-02 2.33649071e-02
      3.40242051e-02 2.36470290e-02 7.83924535e-02 3.28066200e-01
      3.28066200e-01 8.30603912e-02 3.05767097e-02 9.56888963e-03
      9.64837987e-03 1.42680546e-02 1.74779892e-02 5.16886897e-02
      2.96712130e-01 3.28066200e-01 1.77111387e-01 6.51101023e-02
      3.92446890e-02 3.49288359e-02 3.21182571e-02 5.54616228e-02
      1.79040134e-01 3.28066200e-01 3.28066200e-01 1.44828171e-01
      5.01053371e-02 2.00860966e-02 1.76502820e-02 1.76888667e-02
      4.27143984e-02 1.18612729e-01 3.28066200e-01 3.28066200e-01
      1.44593462e-01 9.81531143e-02 7.03477636e-02 3.92603762e-02
      4.95260507e-02 9.96607915e-02 1.66293502e-01 2.31955037e-01
      2.31955037e-01 1.85953453e-01 1.86995819e-01 1.69475660e-01
      8.85540918e-02 9.78304073e-02 1.70357779e-01 1.65140897e-01
      2.31955037e-01 2.31955037e-01 1.01285227e-01 1.94206566e-01
      1.77416027e-01 6.71966821e-02 7.41533041e-02 1.57950789e-01
      1.60544649e-01 1.99634671e-01 1.84808567e-01 1.62140563e-01
      2.31955037e-01 2.31955037e-01 1.07548453e-01 1.36781603e-01
      2.31955037e-01 2.24826947e-01 1.47491708e-01 1.70155033e-01
      1.04432456e-01 1.44856691e-01 2.19402075e-01 1.72965646e-01
      1.21942684e-01 1.23357572e-01 1.27556115e-01 1.88727945e-01
      1.82860330e-01 1.66164830e-01 1.13199115e-01 1.99174076e-01
      1.80814415e-01 1.26204073e-01 1.29467830e-01 2.19191462e-01
      2.19402075e-01 2.19402075e-01 1.37874022e-01 2.19402075e-01
      2.06400201e-01 9.47937965e-02 1.00103043e-01 1.61854535e-01
      1.54335633e-01 6.54806271e-02 9.51632932e-02 1.39769733e-01
      1.50308535e-01 2.19402075e-01 1.42829314e-01 1.20666124e-01
      2.19402075e-01 2.19402075e-01 1.90891027e-01 1.80547684e-01
      1.41987905e-01 4.74505201e-02 4.12694551e-02 3.45363207e-02
      2.91845761e-02 5.56446202e-02 1.37821674e-01 2.77173460e-01
      2.77173460e-01 1.74820960e-01 4.42890413e-02 1.89719517e-02
      1.52064711e-02 1.67543180e-02 3.81386131e-02 9.19704512e-02
      2.77173460e-01 2.77173460e-01 2.77173460e-01 1.24587618e-01
      1.21072769e-01 8.18643048e-02 1.30288199e-01 1.21996410e-01
      1.15613043e-01 2.77173460e-01 2.77173460e-01 2.77173460e-01
      1.21208429e-01 6.99964389e-02 5.90701215e-02 1.07663468e-01
      9.73820537e-02 1.05627976e-01 2.77173460e-01 2.77173460e-01
      1.24054953e-01 2.07169011e-01 2.11050659e-01 8.44702944e-02
      1.08069234e-01 1.74623966e-01 1.52217001e-01 1.53730854e-01
      1.59603104e-01 1.66582063e-01 2.16422871e-01 2.16422871e-01
      1.11786306e-01 1.32079974e-01 2.16422871e-01 2.02176332e-01
      1.29744545e-01 1.58205047e-01 1.13590173e-01 1.20057814e-01
      1.98090196e-01 2.07515806e-01 2.16422871e-01 2.16422871e-01
      1.41891569e-01 1.19357690e-01 1.28386497e-01 1.14743076e-01
      1.52524784e-01 2.12380543e-01 1.63364261e-01 1.87022477e-01
      1.85120225e-01 1.58803254e-01 1.34009942e-01 1.32853717e-01
      1.69162661e-01 2.18074247e-01 1.76928356e-01 8.23988616e-02
      1.05161645e-01 1.93126693e-01 2.04528287e-01 1.03125885e-01
      1.45561635e-01 1.76000804e-01 1.83742523e-01 2.18074247e-01
      1.63035080e-01 1.45398915e-01 2.18074247e-01 2.18074247e-01
      2.18074247e-01 2.18074247e-01 9.33113173e-02 8.54257047e-02
      7.32528642e-02 5.65809347e-02 7.98797607e-02 9.45847854e-02
      1.35514721e-01 1.54410183e-01 1.88062564e-01 1.21084236e-01
      1.18818104e-01 1.59497187e-01 1.54479876e-01 1.88842729e-01
      2.18074247e-01 2.18074247e-01 1.97653040e-01 2.14255691e-01
      2.34674767e-01 1.68276921e-01 1.58193797e-01 9.39823613e-02
      1.38425335e-01 1.25768512e-01 1.07145816e-01 2.34674767e-01
      2.34674767e-01 2.34674767e-01 1.34614706e-01 8.93490016e-02
      7.60972202e-02 1.33532971e-01 1.20859392e-01 1.11955047e-01
      2.34674767e-01 2.34674767e-01 1.69924557e-01 1.33348942e-01
      1.63067937e-01 1.32658646e-01 1.34015575e-01 1.54823989e-01
      1.77847415e-01 2.18212306e-01 2.34674767e-01 1.48388058e-01
      7.70857036e-02 7.47432485e-02 7.76953995e-02 1.08074836e-01
      1.54084027e-01 1.71678454e-01 2.34674767e-01 2.34674767e-01</_>
    <_>
      9.87642705e-02 7.05778673e-02 1.11557797e-01 1.21859707e-01
      2.19538406e-01 2.22169802e-01 2.44934157e-01 2.44934157e-01
      2.44934157e-01 7.52995908e-02 5.11002429e-02 9.87195149e-02
      8.58675614e-02 1.51157439e-01 1.74978018e-01 2.04936475e-01
      2.44934157e-01 1.62101671e-01 1.39676169e-01 8.91394988e-02
      1.30030900e-01 8.63649696e-02 1.22902937e-01 1.06094874e-01
      1.48416728e-01 2.44934157e-01 2.44934157e-01 1.78986385e-01
      1.27004966e-01 1.55155718e-01 8.11297074e-02 1.19243801e-01
      1.22660726e-01 1.50279388e-01 2.44934157e-01 2.44934157e-01
      9.55717936e-02 8.24365318e-02 9.43487510e-02 4.72036898e-02
      4.82394807e-02 5.98137788e-02 9.60401669e-02 3.05889368e-01
      2.58026689e-01 8.50919485e-02 4.92989235e-02 4.51890230e-02
      3.32075842e-02 3.98448966e-02 5.14774583e-02 8.49852264e-02
      3.05889368e-01 2.21833527e-01 2.76411980e-01 1.59116670e-01
      1.19474679e-01 7.14783072e-02 5.87376729e-02 8.37364420e-02
      1.14519335e-01 3.05889368e-01 3.05889368e-01 2.32546717e-01
      1.04358755e-01 6.51315600e-02 7.63073936e-02 5.28408773e-02
      7.52136186e-02 1.58484787e-01 3.05889368e-01 3.05889368e-01
      1.11514449e-01 6.29200563e-02 7.23960996e-02 8.47438127e-02
      1.63512304e-01 1.20781064e-01 1.58979669e-01 2.36068770e-01
      1.46636114e-01 1.28502220e-01 8.53142664e-02 2.08735734e-01
      1.65603429e-01 2.36068770e-01 2.24023849e-01 2.36068770e-01
      2.36068770e-01 1.72470048e-01 6.57292679e-02 4.91524711e-02
      9.62728113e-02 1.31230101e-01 1.78797364e-01 1.51280940e-01
      1.11404039e-01 2.34088823e-01 1.43423229e-01 1.09865151e-01
      1.16363265e-01 2.36068770e-01 2.36068770e-01 2.36068770e-01
      2.36068770e-01 1.72433063e-01 1.36767045e-01 1.01328537e-01
      1.80897951e-01 1.20810531e-01 1.61287531e-01 9.33770239e-02
      8.99796337e-02 8.90686959e-02 1.54454559e-01 2.51875490e-01
      2.51875490e-01 2.51875490e-01 1.92252696e-01 2.21091554e-01
      1.20836921e-01 1.03889607e-01 1.05552286e-01 1.61260903e-01
      2.51875490e-01 2.51875490e-01 7.84352422e-02 7.25653246e-02
      1.61169812e-01 2.14170024e-01 1.13959260e-01 5.47132157e-02
      6.31651655e-02 1.64141893e-01 1.55887261e-01 1.20286629e-01
      1.48234278e-01 2.51875490e-01 2.51875490e-01 1.90780997e-01
      8.23630989e-02 8.07650164e-02 1.41659886e-01 1.49608940e-01
      2.43136764e-01 1.39299467e-01 1.09342411e-01 7.31115341e-02
      5.52302264e-02 7.52954334e-02 9.93816927e-02 2.71112770e-01
      2.71112770e-01 2.07389861e-01 9.57371444e-02 8.44885036e-02
      1.00823767e-01 6.52528331e-02 7.99830407e-02 1.53594941e-01
      2.71112770e-01 2.71112770e-01 1.59022227e-01 1.20471403e-01
      1.61911279e-01 1.85334325e-01 1.46061569e-01 1.12615176e-01
      8.61175880e-02 1.42072991e-01 1.63440675e-01 1.33270591e-01
      8.16661939e-02 1.86646104e-01 1.98876321e-01 1.45221412e-01
      1.22074172e-01 1.20946571e-01 2.71112770e-01 2.71112770e-01
      5.80083020e-02 4.20710668e-02 8.74624476e-02 1.19948834e-01
      1.36292160e-01 1.14541560e-01 8.85847732e-02 1.90648064e-01
      1.23050906e-01 1.08152829e-01 9.34301242e-02 2.50745624e-01
      1.83786929e-01 1.78768098e-01 1.72199771e-01 9.90477949e-02
      1.40531734e-01 1.26746789e-01 2.07728833e-01 1.10402197e-01
      1.72255799e-01 1.61915347e-01 1.39105693e-01 1.48490116e-01
      1.43042728e-01 2.58131176e-01 2.58131176e-01 2.58131176e-01
      1.52703777e-01 1.95376948e-01 1.45203322e-01 1.09886952e-01
      1.42061859e-01 1.83917016e-01 2.58131176e-01 2.58131176e-01
      6.73779771e-02 7.44117424e-02 2.24051639e-01 2.56305575e-01
      1.66117609e-01 7.48049319e-02 5.92644736e-02 1.24037713e-01
      1.23832576e-01 9.29066017e-02 1.48265988e-01 2.56305575e-01
      2.56305575e-01 2.49170735e-01 1.07029632e-01 8.24368298e-02
      1.29131347e-01 1.29093036e-01 1.13023460e-01 2.31446937e-01
      2.56305575e-01 2.56305575e-01 1.78632841e-01 9.89410430e-02
      7.02037066e-02 6.89530745e-02 6.87366426e-02 1.05462462e-01
      2.56305575e-01 2.56305575e-01 2.56305575e-01 1.62270874e-01
      9.64267328e-02 8.66544172e-02 1.09686390e-01 1.05671130e-01
      1.51201218e-01 1.22263201e-01 1.87974826e-01 2.17641190e-01
      2.13879287e-01 1.90288723e-01 1.13381304e-01 1.15117401e-01
      1.31509513e-01 1.27410829e-01 8.35936964e-02 2.02605620e-01
      2.17641190e-01 1.88257441e-01 1.86511308e-01 1.34823278e-01
      2.17641190e-01 2.17641190e-01 4.12818044e-02 6.86761886e-02
      1.60841659e-01 1.56989843e-01 1.75420940e-01 2.17641190e-01
      2.17641190e-01 2.17641190e-01 1.00092731e-01 5.22877127e-02
      7.52794594e-02 1.56335413e-01 1.57534942e-01 1.55594364e-01
      1.89143628e-01 2.17641190e-01 2.00408131e-01 1.10328570e-01
      2.10553274e-01 1.09563321e-01 1.41262501e-01 1.19384512e-01
      1.08931400e-01 1.37376904e-01 1.39856681e-01 2.65199453e-01
      2.65199453e-01 2.65199453e-01 1.36298209e-01 1.36365339e-01
      1.05373397e-01 8.61799493e-02 1.40837580e-01 2.00728849e-01
      2.65199453e-01 2.65199453e-01 1.10708863e-01 6.31376207e-02
      5.32215573e-02 4.09535915e-02 5.46526276e-02 8.23367313e-02
      9.35663283e-02 2.16540143e-01 2.52406687e-01 1.78284973e-01
      7.77688175e-02 5.42741045e-02 4.31017168e-02 6.12574294e-02
      1.32572860e-01 1.85806200e-01 2.65199453e-01 2.65199453e-01</_>
    <_>
      1.05856754e-01 7.58068115e-02 6.45188987e-02 5.64974546e-02
      9.38136652e-02 1.18429087e-01 2.58828104e-01 2.82011360e-01
      2.82011360e-01 1.17538340e-01 5.27096950e-02 3.65154818e-02
      3.63664851e-02 7.07244724e-02 7.59412572e-02 1.30147323e-01
      2.82011360e-01 2.82011360e-01 1.32321045e-01 9.95121971e-02
      7.55244493e-02 5.81723675e-02 7.32658133e-02 1.26352668e-01
      1.91512838e-01 2.82011360e-01 2.82011360e-01 1.41705722e-01
      1.31553009e-01 1.08331911e-01 8.95608440e-02 1.08834386e-01
      1.31697059e-01 1.37891755e-01 2.82011360e-01 2.82011360e-01
      1.40364200e-01 5.08482866e-02 3.41525227e-02 1.93485226e-02
      2.33093221e-02 3.12038641e-02 6.01833425e-02 3.24752659e-01
      3.24752659e-01 1.17895268e-01 5.02856895e-02 3.64530459e-02
      2.07751617e-02 2.17090510e-02 2.85063535e-02 5.30384779e-02
      2.51172811e-01 3.09244782e-01 1.42961770e-01 1.14321515e-01
      1.03282809e-01 7.00805262e-02 8.32338482e-02 1.07910410e-01
      1.45145699e-01 3.24752659e-01 3.24752659e-01 1.40366837e-01
      7.13375881e-02 5.44656739e-02 4.27420959e-02 5.49806878e-02
      9.07360166e-02 1.56299233e-01 3.24752659e-01 3.24752659e-01
      1.70620561e-01 5.45526743e-02 2.07255483e-02 1.70431100e-02
      2.68851053e-02 3.75668742e-02 9.79756340e-02 3.14384520e-01
      3.14384520e-01 1.33296967e-01 3.51238698e-02 1.52132194e-02
      9.88186244e-03 1.95975751e-02 2.56133452e-02 7.48350769e-02
      3.14269304e-01 3.14384520e-01 1.99321121e-01 8.77584070e-02
      4.47640680e-02 3.39822210e-02 4.20229360e-02 6.16536438e-02
      1.51498765e-01 3.14384520e-01 3.14384520e-01 1.91890270e-01
      6.58581257e-02 3.16409282e-02 2.26599332e-02 2.93552577e-02
      3.76536883e-02 1.07966051e-01 3.14384520e-01 3.14384520e-01
      1.66930348e-01 1.35440737e-01 1.05314761e-01 8.25502649e-02
      8.62303227e-02 1.26910597e-01 1.76207110e-01 2.39076570e-01
      2.39076570e-01 1.66127577e-01 1.91481307e-01 1.78018853e-01
      1.42948061e-01 1.39256924e-01 1.53867185e-01 1.49972409e-01
      2.39076570e-01 2.39076570e-01 1.63261846e-01 1.97154552e-01
      2.09314078e-01 1.24852352e-01 1.44356981e-01 1.11220405e-01
      1.15264542e-01 1.49422780e-01 1.57958671e-01 2.11529225e-01
      2.39076570e-01 2.39076570e-01 1.53238952e-01 1.63800478e-01
      1.15384653e-01 8.13309327e-02 8.22210908e-02 1.16477363e-01
      1.10014886e-01 1.06388696e-01 1.15977265e-01 9.27785784e-02
      1.11972027e-01 1.43040806e-01 1.36219874e-01 2.79739171e-01
      2.79739171e-01 1.23496696e-01 6.16117716e-02 6.50995523e-02
      6.55691102e-02 7.98818469e-02 1.26778275e-01 1.62796140e-01
      2.79739171e-01 2.79739171e-01 1.42431766e-01 1.29320890e-01
      1.64614275e-01 1.30561233e-01 1.52885437e-01 1.95464015e-01
      9.12500545e-02 1.06603198e-01 1.45003721e-01 2.00216115e-01
      1.04505599e-01 1.66055381e-01 1.42588705e-01 1.58399075e-01
      1.95523664e-01 1.47690266e-01 2.54678220e-01 2.79739171e-01
      1.31402418e-01 4.42979857e-02 2.24682763e-02 1.67773794e-02
      2.18817201e-02 3.52816619e-02 8.46503899e-02 2.89777845e-01
      2.89777845e-01 1.27347544e-01 3.80234718e-02 1.81849841e-02
      1.28002567e-02 1.61978155e-02 2.28989888e-02 6.19987622e-02
      2.89777845e-01 2.89777845e-01 2.89777845e-01 1.23301268e-01
      7.63214603e-02 6.78290054e-02 9.73481685e-02 9.89897996e-02
      1.23378322e-01 2.89777845e-01 2.89777845e-01 2.89777845e-01
      1.14925325e-01 4.83640991e-02 3.10453717e-02 4.38992642e-02
      6.32703602e-02 1.52090862e-01 2.89777845e-01 2.89777845e-01
      1.71287686e-01 2.11694390e-01 2.15009719e-01 1.62795410e-01
      1.83441654e-01 1.33468419e-01 1.50453180e-01 1.47543386e-01
      1.39954776e-01 2.15009719e-01 2.15009719e-01 2.15009719e-01
      1.51830897e-01 1.56109408e-01 1.08297922e-01 8.37210640e-02
      8.39693174e-02 1.16641596e-01 1.49968565e-01 1.66994661e-01
      2.15009719e-01 2.12577507e-01 2.15009719e-01 1.92071274e-01
      2.15009719e-01 1.75560519e-01 1.05831087e-01 1.56467870e-01
      1.63694248e-01 1.63542092e-01 1.49431944e-01 1.78799942e-01
      9.17740390e-02 1.27403215e-01 1.56935513e-01 1.23411737e-01
      1.92717195e-01 1.63199052e-01 1.86813727e-01 1.42817855e-01
      1.58132076e-01 1.81748241e-01 7.97275007e-02 1.05825551e-01
      1.77020743e-01 2.21694306e-01 1.50857717e-01 2.03681245e-01
      1.70915380e-01 1.80774540e-01 1.91992387e-01 1.51687518e-01
      2.21694306e-01 2.21694306e-01 1.47484645e-01 1.07444264e-01
      1.00631438e-01 8.64851400e-02 2.16182679e-01 9.83479246e-02
      4.93892021e-02 1.20593704e-01 1.88087225e-01 2.21694306e-01
      1.50692686e-01 1.33469865e-01 1.31483972e-01 2.21694306e-01
      1.36343285e-01 1.19284846e-01 2.01471552e-01 2.21694306e-01
      2.43558630e-01 1.29888564e-01 9.31803137e-02 1.03244528e-01
      1.24245405e-01 1.20020434e-01 1.27598256e-01 2.43558630e-01
      2.43558630e-01 2.43558630e-01 1.22840516e-01 6.45427331e-02
      5.06114252e-02 6.56655729e-02 8.70339200e-02 1.62411600e-01
      2.43558630e-01 2.43558630e-01 1.74194187e-01 1.62369460e-01
      1.30902678e-01 1.78863570e-01 2.26268053e-01 1.14841834e-01
      1.00269519e-01 1.17187992e-01 1.57663718e-01 2.43558630e-01
      2.00616151e-01 1.38939410e-01 9.35527757e-02 1.23498626e-01
      1.01731956e-01 9.21444744e-02 2.43558630e-01 2.43558630e-01</_>
    <_>
      1.44412175e-01 1.44725159e-01 1.24748982e-01 1.20270722e-01
      1.71065882e-01 1.75442278e-01 2.36687541e-01 2.36687541e-01
      2.36687541e-01 1.06913589e-01 7.12550879e-02 7.19232634e-02
      9.61998776e-02 1.07275024e-01 1.49278060e-01 2.36687541e-01
      2.36687541e-01 2.36687541e-01 9.94394049e-02 6.52428865e-02
      6.72013611e-02 8.40208009e-02 7.53741711e-02 1.12073198e-01
      1.88280478e-01 2.36687541e-01 2.11472526e-01 1.64093077e-01
      1.32405981e-01 1.34141788e-01 1.55376464e-01 1.26622692e-01
      1.52579978e-01 2.16350153e-01 2.36687541e-01 2.36687541e-01
      1.12898700e-01 8.07094425e-02 1.44098774e-01 5.88829480e-02
      5.28687462e-02 5.28433919e-02 1.41480505e-01 2.75875449e-01
      2.75875449e-01 9.59534273e-02 4.63526249e-02 7.30844587e-02
      3.16455476e-02 3.24908979e-02 3.65461409e-02 1.23070315e-01
      2.75875449e-01 2.75875449e-01 2.42479414e-01 1.49174213e-01
      1.69554383e-01 9.95428786e-02 8.33127648e-02 8.34481642e-02
      1.33780643e-01 2.75875449e-01 2.75875449e-01 2.21457794e-01
      1.15337394e-01 1.37800768e-01 1.07014455e-01 6.80100471e-02
      7.63534382e-02 1.71178147e-01 2.75875449e-01 2.75875449e-01
      1.00653939e-01 3.97680141e-02 5.32396324e-02 1.10008590e-01
      1.36772856e-01 8.98097605e-02 1.34252340e-01 2.18113780e-01
      1.84843361e-01 1.25839368e-01 6.61306977e-02 1.90947697e-01
      2.14262247e-01 2.30002552e-01 1.95431277e-01 2.30002552e-01
      2.30002552e-01 2.11557284e-01 8.84671658e-02 4.74507734e-02
      9.01826322e-02 1.88644230e-01 1.49962068e-01 1.53264180e-01
      1.35426655e-01 2.30002552e-01 1.91840515e-01 1.28784239e-01
      9.71224755e-02 2.30002552e-01 2.30002552e-01 2.09332660e-01
      2.30002552e-01 1.73660532e-01 1.39218599e-01 1.19923301e-01
      1.23480491e-01 1.00577384e-01 1.00314319e-01 1.26539722e-01
      1.06937751e-01 1.31470054e-01 2.07558617e-01 2.04682812e-01
      1.94613636e-01 2.23398596e-01 2.08987951e-01 2.09755138e-01
      2.23398596e-01 1.92567691e-01 1.91912055e-01 2.23398596e-01
      2.23398596e-01 2.23398596e-01 1.11803532e-01 1.05356030e-01
      1.14969000e-01 1.41442358e-01 7.85966069e-02 6.58235252e-02
      7.99688175e-02 1.61101013e-01 1.76503032e-01 1.27806723e-01
      1.79905683e-01 2.23398596e-01 2.23398596e-01 1.68742880e-01
      1.01995155e-01 1.13335364e-01 1.65069684e-01 1.59116045e-01
      2.34726116e-01 1.59795091e-01 1.55946523e-01 1.21942863e-01
      9.29187164e-02 8.02729353e-02 1.19334616e-01 2.34726116e-01
      2.34726116e-01 2.34726116e-01 1.49010777e-01 1.53596237e-01
      1.36013389e-01 9.15359184e-02 1.05564982e-01 1.67299092e-01
      2.34726116e-01 2.34726116e-01 1.13462813e-01 1.28730461e-01
      1.70863584e-01 1.93341926e-01 1.44542590e-01 1.13106214e-01
      1.31806269e-01 1.69548854e-01 1.24824159e-01 1.31121457e-01
      1.30482271e-01 1.35737851e-01 1.44507930e-01 1.55300766e-01
      2.09965527e-01 2.05068544e-01 2.34726116e-01 1.75898030e-01
      7.05434754e-02 4.33155075e-02 8.48425701e-02 1.47558466e-01
      1.14712588e-01 1.33229136e-01 1.12397015e-01 2.29666680e-01
      1.51453927e-01 1.10026687e-01 7.89957792e-02 2.21480280e-01
      2.18309462e-01 1.26385733e-01 1.54890418e-01 9.57149044e-02
      1.44731417e-01 1.50214195e-01 1.77261099e-01 1.05146237e-01
      1.78694889e-01 1.57679766e-01 1.28275901e-01 1.77920178e-01
      1.64735764e-01 2.54557341e-01 2.54557341e-01 2.54557341e-01
      1.33323759e-01 2.05631569e-01 1.62598118e-01 1.20346971e-01
      1.42927423e-01 1.21580765e-01 2.54557341e-01 2.54557341e-01
      1.16645299e-01 1.19727641e-01 1.49398297e-01 1.75424173e-01
      1.16950393e-01 6.57273978e-02 7.11610541e-02 1.50494084e-01
      1.70010462e-01 1.36801928e-01 2.33031452e-01 2.45549783e-01
      2.45549783e-01 2.29109928e-01 1.08243845e-01 1.00515433e-01
      1.59051955e-01 1.52942911e-01 7.70172700e-02 1.51374370e-01
      2.45549783e-01 2.11888030e-01 1.92178383e-01 1.13526195e-01
      8.05322006e-02 6.27158880e-02 6.02422841e-02 1.27530530e-01
      2.45549783e-01 2.45549783e-01 2.45549783e-01 2.45549783e-01
      1.49464026e-01 1.41435027e-01 1.32207319e-01 1.00595102e-01
      1.03193454e-01 1.58647716e-01 2.17835650e-01 2.14824766e-01
      1.68555796e-01 1.45266578e-01 2.01572701e-01 2.09045112e-01
      1.18039683e-01 1.16127804e-01 1.25959128e-01 1.61855936e-01
      1.65858254e-01 1.82576254e-01 2.30991393e-01 2.30991393e-01
      2.30991393e-01 1.74266472e-01 1.01756550e-01 1.42588884e-01
      1.61455870e-01 7.05957413e-02 6.30813166e-02 6.57630414e-02
      1.83159828e-01 1.82231680e-01 1.40921623e-01 1.21432811e-01
      1.06664218e-01 1.63637623e-01 1.78479046e-01 1.43158734e-01
      1.19626746e-01 2.30991393e-01 2.30991393e-01 1.75301582e-01
      1.94822937e-01 1.07986726e-01 1.45871997e-01 1.02992862e-01
      9.76284072e-02 1.39052182e-01 1.36412576e-01 2.42414460e-01
      2.42414460e-01 2.42414460e-01 1.16053902e-01 1.41422614e-01
      1.04593292e-01 1.04041442e-01 1.35230958e-01 1.06897369e-01
      2.42414460e-01 2.42414460e-01 2.42414460e-01 1.50717989e-01
      1.13872811e-01 8.92170519e-02 1.00017346e-01 8.59504864e-02
      1.25779599e-01 2.42414460e-01 2.42414460e-01 2.42414460e-01
      1.19188227e-01 7.11239278e-02 6.98649809e-02 1.09307237e-01
      1.36225641e-01 1.28712431e-01 2.18932241e-01 2.42414460e-01</_>
    <_>
      1.00033663e-01 7.35991597e-02 6.96716085e-02 8.85161832e-02
      1.78796425e-01 1.92157507e-01 2.47742802e-01 2.47742802e-01
      2.47742802e-01 1.04401901e-01 5.75511493e-02 5.30452356e-02
      6.67943954e-02 1.75707251e-01 1.84678435e-01 2.47742802e-01
      2.47742802e-01 2.47742802e-01 1.07827529e-01 9.16801915e-02
      7.93233812e-02 4.55614887e-02 6.38877228e-02 1.14788450e-01
      1.76025659e-01 2.47742802e-01 2.10935265e-01 1.42904252e-01
      1.55052990e-01 1.90113693e-01 7.31330514e-02 9.54136252e-02
      1.41276553e-01 1.59716353e-01 2.47742802e-01 2.47742802e-01
      1.37570292e-01 4.16001305e-02 2.70669498e-02 3.16265821e-02
      5.12911938e-02 4.91373092e-02 1.19951762e-01 3.09637338e-01
      3.09637338e-01 1.48296118e-01 5.34058213e-02 4.23951894e-02
      3.82840447e-02 3.40432115e-02 4.08172756e-02 1.05295330e-01
      3.09637338e-01 3.09637338e-01 1.19932443e-01 9.97325331e-02
      1.49742365e-01 1.12344205e-01 1.08116485e-01 8.98853689e-02
      1.02248169e-01 2.77161896e-01 2.66157299e-01 1.39595076e-01
      8.76045078e-02 9.66316462e-02 1.25031233e-01 1.33415252e-01
      1.10630840e-01 1.35594919e-01 3.09637338e-01 3.09637338e-01
      1.18288741e-01 4.68015522e-02 2.02940051e-02 2.35767309e-02
      3.26783285e-02 3.05320807e-02 7.41799623e-02 3.35079044e-01
      3.35079044e-01 7.87349269e-02 2.66060270e-02 8.92169215e-03
      1.00282962e-02 1.55559285e-02 1.87351368e-02 4.74341437e-02
      3.03369790e-01 3.35079044e-01 1.25685513e-01 6.06232621e-02
      2.94293929e-02 3.66751365e-02 4.05010618e-02 5.85618988e-02
      1.53598681e-01 3.35079044e-01 3.35079044e-01 1.24060027e-01
      5.39712422e-02 2.07093898e-02 1.82183906e-02 2.34818272e-02
      3.91503684e-02 1.12230331e-01 3.35079044e-01 3.35079044e-01
      1.32573709e-01 1.18207239e-01 1.07360534e-01 6.85256347e-02
      6.65091872e-02 1.16402425e-01 1.50210083e-01 2.21033767e-01
      2.21033767e-01 1.71410188e-01 2.14983851e-01 2.21033767e-01
      1.21049389e-01 8.69512632e-02 1.13883801e-01 1.34183317e-01
      2.21033767e-01 2.21033767e-01 1.64104760e-01 1.52804658e-01
      1.94436342e-01 1.35391995e-01 1.53633192e-01 1.88527524e-01
      1.32672518e-01 1.99342608e-01 2.18961358e-01 1.86911702e-01
      2.21033767e-01 2.21033767e-01 1.91512585e-01 1.68068752e-01
      1.35165468e-01 8.20162296e-02 1.35426119e-01 1.57043710e-01
      1.19193181e-01 1.48184508e-01 2.26341173e-01 1.74663872e-01
      1.44446060e-01 9.72074941e-02 8.68124142e-02 1.62929192e-01
      1.73926800e-01 1.46606132e-01 1.34729102e-01 1.73746839e-01
      2.05974922e-01 1.92828596e-01 1.39451608e-01 1.30497709e-01
      2.26341173e-01 2.26341173e-01 1.99977115e-01 2.26341173e-01
      2.26341173e-01 1.54669628e-01 1.21831268e-01 5.64538278e-02
      2.80237496e-02 5.40112704e-02 8.69882330e-02 2.26341173e-01
      2.26341173e-01 2.26341173e-01 1.90411672e-01 1.55577138e-01
      1.09910317e-01 9.82808396e-02 1.55184880e-01 2.02883005e-01
      1.15022846e-01 5.12407795e-02 3.81976888e-02 4.29247580e-02
      3.80825661e-02 5.64520322e-02 1.17959969e-01 2.78355122e-01
      2.78355122e-01 1.72321811e-01 5.43948449e-02 1.93657484e-02
      1.50638241e-02 2.02970970e-02 3.68131772e-02 9.39035341e-02
      2.78355122e-01 2.78355122e-01 2.30965406e-01 1.19139411e-01
      1.31262198e-01 9.63957831e-02 1.33475751e-01 1.51670918e-01
      1.53470621e-01 2.74023414e-01 2.78355122e-01 2.78355122e-01
      1.21561855e-01 7.72596002e-02 5.80067299e-02 1.05102479e-01
      1.14826202e-01 1.18111528e-01 2.78355122e-01 2.78355122e-01
      1.63182482e-01 1.43202573e-01 1.85932383e-01 1.43540993e-01
      1.81925207e-01 2.09714159e-01 1.65550306e-01 1.93998232e-01
      2.13918805e-01 1.73163548e-01 2.13918805e-01 2.13918805e-01
      1.88734218e-01 1.79001972e-01 1.52223170e-01 9.84654054e-02
      1.33793622e-01 1.42940238e-01 1.01636998e-01 8.57384726e-02
      1.20302312e-01 1.89661995e-01 2.13918805e-01 2.13918805e-01
      2.13918805e-01 1.82371676e-01 1.44943848e-01 6.79938719e-02
      1.13285229e-01 1.51115969e-01 1.76719174e-01 2.05101073e-01
      1.75486535e-01 1.44239977e-01 1.27628639e-01 7.83890188e-02
      2.27442935e-01 2.27442935e-01 2.27442935e-01 1.49182871e-01
      1.32526860e-01 6.81674778e-02 3.71915437e-02 8.13745707e-02
      1.24898195e-01 2.27442935e-01 2.27442935e-01 2.27442935e-01
      1.88291490e-01 1.70769230e-01 1.27455354e-01 1.15293562e-01
      1.90318286e-01 2.27442935e-01 1.00408450e-01 1.24486469e-01
      1.09704696e-01 1.31694883e-01 1.80219606e-01 1.06075279e-01
      5.03610000e-02 1.09818622e-01 1.45299196e-01 1.42443135e-01
      1.92311376e-01 2.23135054e-01 2.27442935e-01 2.27442935e-01
      1.98757201e-01 1.11344688e-01 1.22343019e-01 1.59311727e-01
      2.45194063e-01 1.51820809e-01 1.72622964e-01 1.13668077e-01
      1.86497360e-01 2.05922946e-01 1.83515981e-01 2.45194063e-01
      2.45194063e-01 2.45194063e-01 1.42579362e-01 9.93615389e-02
      8.07149112e-02 1.57554537e-01 1.69111460e-01 1.43320546e-01
      2.45194063e-01 2.45194063e-01 1.40964419e-01 6.66099489e-02
      7.29592368e-02 6.51030540e-02 1.43381372e-01 1.84703752e-01
      1.29116803e-01 1.44167706e-01 2.29768634e-01 1.59186214e-01
      5.27777448e-02 3.28173228e-02 3.51925045e-02 8.01331401e-02
      9.90284160e-02 7.62556568e-02 2.41082519e-01 2.45194063e-01</_>
    <_>
      1.09525360e-01 9.95649844e-02 8.30706432e-02 8.86350274e-02
      1.47801846e-01 1.77470252e-01 2.21823886e-01 2.21823886e-01
      1.96339101e-01 9.81751233e-02 7.94743672e-02 6.49121031e-02
      6.62236139e-02 1.29690558e-01 1.24129072e-01 1.33077472e-01
      2.21823886e-01 2.21823886e-01 1.79652765e-01 2.21823886e-01
      2.21823886e-01 1.82338461e-01 1.72565117e-01 1.32083789e-01
      1.26024917e-01 2.21823886e-01 2.18468085e-01 1.48021266e-01
      1.57764152e-01 2.21823886e-01 1.97395936e-01 1.45334423e-01
      1.06889829e-01 8.94839987e-02 2.21823886e-01 2.21823886e-01
      1.26406237e-01 9.21390057e-02 5.66128567e-02 4.29682545e-02
      4.12961356e-02 3.57525498e-02 1.06761716e-01 3.04347396e-01
      3.04347396e-01 8.17174315e-02 3.90909798e-02 2.58069020e-02
      1.91160999e-02 2.47685034e-02 2.34698877e-02 8.72190669e-02
      3.04347396e-01 2.58318424e-01 1.72879577e-01 1.22604109e-01
      1.00320786e-01 1.10967107e-01 1.30757421e-01 1.46176532e-01
      1.74890593e-01 3.04347396e-01 3.04347396e-01 1.27584100e-01
      6.28816783e-02 4.94166277e-02 6.32043928e-02 8.03335831e-02
      1.30053759e-01 1.83150962e-01 3.04347396e-01 3.04347396e-01
      8.95000994e-02 5.95822297e-02 6.51211664e-02 1.19714402e-01
      1.65965825e-01 1.07294731e-01 1.44523844e-01 2.31827736e-01
      1.63515240e-01 1.17486939e-01 1.04439698e-01 2.31827736e-01
      2.07038224e-01 2.31827736e-01 2.27342278e-01 2.31827736e-01
      2.31827736e-01 1.65611178e-01 5.28442748e-02 4.41170707e-02
      9.99256521e-02 1.20282769e-01 1.69406548e-01 1.66633651e-01
      1.05596155e-01 2.31827736e-01 1.55462831e-01 1.04689941e-01
      1.11868024e-01 2.31827736e-01 2.31827736e-01 2.31827736e-01
      2.31827736e-01 1.29837826e-01 1.39941648e-01 1.25891522e-01
      1.91517860e-01 2.17820868e-01 2.17820868e-01 2.02679008e-01
      1.70242146e-01 1.19155042e-01 9.95075107e-02 2.00884461e-01
      2.10796505e-01 1.37278825e-01 1.79690599e-01 2.17820868e-01
      2.17820868e-01 1.33020684e-01 8.30023587e-02 7.49856308e-02
      2.15093181e-01 2.17820868e-01 9.23348144e-02 1.48590401e-01
      2.09398657e-01 2.03090534e-01 2.17820868e-01 2.17820868e-01
      1.21287674e-01 1.02417387e-01 1.12742677e-01 7.05639869e-02
      1.77175313e-01 2.17820868e-01 2.17820868e-01 1.47795603e-01
      8.38055611e-02 5.02665043e-02 4.89569269e-02 6.16756678e-02
      1.29136011e-01 9.99523178e-02 1.14618301e-01 1.29024461e-01
      1.67285249e-01 1.82936177e-01 1.47752702e-01 2.48953730e-01
      2.48953730e-01 1.16184510e-01 6.42154068e-02 8.45090598e-02
      1.04898460e-01 1.25109449e-01 1.66493371e-01 1.71244308e-01
      2.48953730e-01 2.48953730e-01 1.62409306e-01 1.50611058e-01
      1.45435393e-01 1.24195300e-01 1.64662942e-01 1.40460327e-01
      5.70760034e-02 9.12723467e-02 1.37333259e-01 2.48953730e-01
      1.79680139e-01 1.44974768e-01 1.62302181e-01 1.72139376e-01
      1.57264546e-01 1.36134103e-01 2.48953730e-01 2.48953730e-01
      5.02225943e-02 3.99368443e-02 9.25820693e-02 9.83296782e-02
      1.12316117e-01 1.18157797e-01 8.75133649e-02 1.90103561e-01
      1.23563521e-01 9.75823775e-02 8.98711458e-02 2.46825054e-01
      1.71957687e-01 1.34920448e-01 1.31727725e-01 9.32522565e-02
      1.88529715e-01 1.59660175e-01 1.57581508e-01 1.17408536e-01
      1.85133860e-01 1.75503999e-01 1.47912860e-01 1.45854086e-01
      1.83759809e-01 2.64189929e-01 2.64189929e-01 2.03096062e-01
      1.43864304e-01 2.36079454e-01 1.64694965e-01 1.05857089e-01
      1.14817567e-01 2.16780156e-01 2.64189929e-01 2.64189929e-01
      5.99233694e-02 1.05852991e-01 2.27960855e-01 2.27960855e-01
      2.27960855e-01 2.27960855e-01 1.59010395e-01 1.04280777e-01
      9.79067311e-02 7.33280033e-02 1.99703723e-01 2.27960855e-01
      2.27960855e-01 1.77294686e-01 1.09547518e-01 6.55340925e-02
      7.25422949e-02 7.79131800e-02 3.76201160e-02 8.23630020e-02
      2.14613169e-01 2.27960855e-01 2.27960855e-01 2.27960855e-01
      2.27960855e-01 1.35573104e-01 5.59597090e-02 7.23663345e-02
      1.32150382e-01 2.27960855e-01 2.27960855e-01 2.27960855e-01
      1.51672944e-01 1.11476667e-01 1.21627487e-01 9.27695408e-02
      1.93937495e-01 1.95511863e-01 1.65625051e-01 1.12936631e-01
      1.47047341e-01 9.55767855e-02 4.39329073e-02 1.00004867e-01
      1.56158075e-01 2.27438256e-01 2.27438256e-01 1.71131462e-01
      1.50444776e-01 1.67904928e-01 1.33883119e-01 1.36343673e-01
      2.27438256e-01 2.27438256e-01 1.31875455e-01 1.48721173e-01
      1.79698527e-01 1.67975023e-01 1.86349005e-01 1.14660554e-01
      7.12853223e-02 8.99270624e-02 1.21670529e-01 1.75129697e-01
      1.84559733e-01 1.70397922e-01 1.61658898e-01 2.19406143e-01
      2.12824747e-01 1.67423680e-01 1.88331783e-01 1.95945844e-01
      1.42201781e-01 1.09177507e-01 1.33771643e-01 1.33208022e-01
      1.42219380e-01 1.10601306e-01 1.44324377e-01 2.49404192e-01
      2.49404192e-01 1.77532360e-01 1.30126625e-01 1.51064306e-01
      1.13545999e-01 8.87482837e-02 7.84818977e-02 1.72471806e-01
      2.49404192e-01 2.49404192e-01 1.42665267e-01 1.97258234e-01
      1.19102366e-01 1.03731953e-01 2.49404192e-01 9.51199755e-02
      8.79611447e-02 1.46994352e-01 1.61995143e-01 2.24267438e-01
      2.49404192e-01 1.43373057e-01 8.12982693e-02 1.28366455e-01
      5.16767800e-02 7.36126453e-02 2.49404192e-01 2.49404192e-01</_>
    <_>
      1.04925409e-01 1.14314005e-01 1.03523485e-01 6.82019964e-02
      1.67991892e-01 2.11496755e-01 2.64465541e-01 2.64465541e-01
      2.64465541e-01 9.03567895e-02 8.15954804e-02 7.92807117e-02
      6.19628802e-02 1.69101372e-01 2.46526763e-01 2.64465541e-01
      2.64465541e-01 2.64465541e-01 7.37113580e-02 5.91114685e-02
      4.70791906e-02 2.84065697e-02 4.54089902e-02 6.99795932e-02
      1.00520879e-01 2.27432951e-01 1.76936120e-01 1.20483585e-01
      8.36170018e-02 1.03924543e-01 7.39152208e-02 1.04013272e-01
      1.46833405e-01 1.83837533e-01 2.64465541e-01 2.55056977e-01
      8.33488926e-02 7.06426203e-02 7.48943612e-02 2.86519863e-02
      4.76260930e-02 5.89074679e-02 1.07113399e-01 2.97948450e-01
      2.71203756e-01 7.05737248e-02 5.06120436e-02 4.24111709e-02
      1.63916890e-02 2.89849360e-02 3.55765969e-02 8.13723877e-02
      2.97948450e-01 2.31565595e-01 1.78836390e-01 1.54646888e-01
      2.07742482e-01 1.15584739e-01 1.13429613e-01 1.09832086e-01
      1.62901670e-01 2.97948450e-01 2.97948450e-01 1.71500057e-01
      1.37826532e-01 1.29174694e-01 8.54748189e-02 9.81936529e-02
      1.00583158e-01 1.65082842e-01 2.97948450e-01 2.97948450e-01
      1.06081523e-01 5.15772253e-02 5.89916930e-02 7.46212378e-02
      1.08454525e-01 8.82740766e-02 1.47205755e-01 2.31542259e-01
      1.78228572e-01 1.05454437e-01 7.99392387e-02 1.89999685e-01
      1.74469888e-01 2.21755177e-01 1.88271925e-01 2.42065474e-01
      2.42065474e-01 1.94844201e-01 7.41782710e-02 5.06966822e-02
      5.59955463e-02 1.22849122e-01 1.76029906e-01 1.25971705e-01
      1.76078558e-01 2.42065474e-01 2.42065474e-01 7.72271082e-02
      8.10903311e-02 2.42065474e-01 2.13528320e-01 2.42065474e-01
      2.10192487e-01 1.77314594e-01 1.83740452e-01 1.34654224e-01
      9.77243111e-02 7.48573244e-02 6.37065023e-02 5.28646745e-02
      4.84440438e-02 7.09629729e-02 1.27812341e-01 2.28791773e-01
      1.88906610e-01 1.69315368e-01 1.19057819e-01 1.82781458e-01
      1.45280004e-01 1.21018969e-01 1.72555059e-01 2.45776370e-01
      2.45776370e-01 2.45776370e-01 8.68268162e-02 9.79058444e-02
      1.63309142e-01 7.88664371e-02 7.02460781e-02 1.06512398e-01
      1.37369111e-01 2.16072470e-01 1.67620614e-01 1.25985712e-01
      2.25380346e-01 2.45776370e-01 1.63433820e-01 1.37461543e-01
      2.45776370e-01 2.45776370e-01 2.45776370e-01 1.64143890e-01
      1.55991942e-01 1.69721305e-01 2.56844401e-01 1.37225002e-01
      1.25318527e-01 1.19615264e-01 1.49525285e-01 2.58486062e-01
      2.58486062e-01 1.58414960e-01 1.47982135e-01 1.57258153e-01
      1.15849413e-01 1.28795415e-01 1.39492586e-01 1.61449686e-01
      2.58486062e-01 2.58486062e-01 1.10754259e-01 2.35361531e-01
      2.58486062e-01 8.54431018e-02 8.31904635e-02 1.26804486e-01
      1.73419729e-01 7.07396343e-02 8.08492005e-02 8.42683911e-02
      1.27225772e-01 1.85407534e-01 1.43237099e-01 1.13688298e-01
      1.44762889e-01 2.25349128e-01 1.22531973e-01 9.13225263e-02
      5.19179180e-02 4.25287411e-02 5.29092774e-02 1.30041331e-01
      1.53944939e-01 1.17491692e-01 1.29324064e-01 2.55404413e-01
      1.92980811e-01 5.89689314e-02 6.19683377e-02 1.69583797e-01
      1.50223508e-01 1.94948032e-01 1.51023507e-01 9.51322243e-02
      1.15956858e-01 1.00691661e-01 1.41728118e-01 1.16369158e-01
      1.97782159e-01 2.10285693e-01 1.74963251e-01 1.56728387e-01
      1.91794395e-01 2.55404413e-01 2.55404413e-01 2.55404413e-01
      1.29156604e-01 1.75863430e-01 1.42376259e-01 1.20654032e-01
      1.54997259e-01 1.51310131e-01 2.55404413e-01 2.55404413e-01
      7.71991611e-02 9.77286398e-02 1.90634161e-01 7.45980442e-02
      6.80304989e-02 8.56653750e-02 9.59080532e-02 1.35526881e-01
      1.07913807e-01 1.10525660e-01 2.05813468e-01 2.31422529e-01
      1.43438548e-01 1.07672609e-01 2.31422529e-01 2.31422529e-01
      1.81510627e-01 1.29040286e-01 2.31422529e-01 2.12790653e-01
      2.31422529e-01 1.54126137e-01 2.04563320e-01 1.58775523e-01
      1.06216185e-01 9.87322554e-02 1.35176346e-01 2.27469146e-01
      2.31422529e-01 2.31422529e-01 1.81748837e-01 1.36565506e-01
      1.26988724e-01 1.83534041e-01 1.43204793e-01 1.69470727e-01
      2.12249324e-01 2.31457338e-01 2.31457338e-01 1.03010312e-01
      1.05317444e-01 2.02988461e-01 2.31457338e-01 1.31329432e-01
      1.69007301e-01 1.39732078e-01 1.76215634e-01 2.31457338e-01
      2.31457338e-01 1.75838694e-01 2.19135955e-01 2.31457338e-01
      1.91967204e-01 1.40207782e-01 1.19779341e-01 1.09841965e-01
      1.21668726e-01 4.95375283e-02 5.12088090e-02 6.58259168e-02
      1.47841692e-01 2.03351349e-01 2.00034127e-01 9.38586965e-02
      6.68658689e-02 6.72273785e-02 1.16722286e-01 1.83906838e-01
      1.33425802e-01 2.05496952e-01 1.75571516e-01 1.62810951e-01
      1.30423322e-01 9.78008583e-02 1.64554924e-01 1.55078501e-01
      1.32510990e-01 1.13772325e-01 1.58163935e-01 2.37939119e-01
      2.37939119e-01 2.37939119e-01 1.11382708e-01 1.25348464e-01
      1.05197482e-01 9.47406515e-02 1.14012629e-01 1.32372990e-01
      2.37939119e-01 2.37939119e-01 1.03992641e-01 8.44865814e-02
      9.20911059e-02 1.62711635e-01 2.04606682e-01 1.50466919e-01
      1.98194727e-01 2.10245371e-01 1.70653954e-01 1.55347675e-01
      1.11642420e-01 1.15319893e-01 1.33110076e-01 1.61551714e-01
      1.43158332e-01 2.12569758e-01 2.37939119e-01 2.37939119e-01</_>
    <_>
      2.44469747e-01 1.90545872e-01 1.81003615e-01 9.25072208e-02
      1.67795539e-01 1.65929779e-01 1.57183722e-01 2.20094338e-01
      2.44469747e-01 2.31545374e-01 1.31644964e-01 1.25839919e-01
      8.21494758e-02 1.33584052e-01 1.29559100e-01 2.44469747e-01
      2.44469747e-01 2.44469747e-01 8.80588070e-02 1.05057560e-01
      8.54814723e-02 4.30643000e-02 6.15314581e-02 6.98786080e-02
      1.07645653e-01 2.44469747e-01 2.02607274e-01 1.01877131e-01
      7.30566904e-02 7.04182833e-02 4.84112650e-02 7.73489252e-02
      1.05432004e-01 2.35445023e-01 2.44469747e-01 2.44469747e-01
      7.05569312e-02 3.92735489e-02 6.43445477e-02 3.51108350e-02
      3.62508111e-02 3.85813862e-02 1.04332812e-01 3.15799773e-01
      3.15799773e-01 5.59899211e-02 2.52372529e-02 2.98841521e-02
      1.55840758e-02 2.02294365e-02 2.04063114e-02 5.90373501e-02
      3.15799773e-01 3.08435887e-01 1.17191657e-01 6.48786873e-02
      8.32938254e-02 7.81527981e-02 1.24079704e-01 1.44547388e-01
      1.97822705e-01 3.15799773e-01 3.15799773e-01 1.15970664e-01
      6.37087673e-02 5.26254922e-02 6.45066574e-02 8.54627490e-02
      7.45637789e-02 1.58399090e-01 3.15799773e-01 3.15799773e-01
      1.04328044e-01 8.05065855e-02 7.73129091e-02 9.92343724e-02
      1.27807155e-01 1.06109746e-01 1.49123222e-01 2.35984996e-01
      2.09557056e-01 1.11770421e-01 1.00493945e-01 1.64502397e-01
      1.48543522e-01 1.84665695e-01 1.53886795e-01 2.35984996e-01
      2.35984996e-01 2.16527760e-01 5.30679375e-02 4.23597544e-02
      7.86630288e-02 1.13988407e-01 1.56198412e-01 1.49812356e-01
      1.41103432e-01 2.35984996e-01 1.82956040e-01 6.69693202e-02
      7.14756176e-02 2.35984996e-01 2.35984996e-01 2.35984996e-01
      2.30660364e-01 2.21452951e-01 2.35984996e-01 1.13813221e-01
      1.33357570e-01 1.14179872e-01 7.51731321e-02 3.91660072e-02
      6.51783496e-02 8.87304991e-02 1.59522653e-01 3.17254245e-01
      3.17254245e-01 1.75144032e-01 8.94187018e-02 8.29598531e-02
      5.87598383e-02 9.99988243e-02 1.69166341e-01 3.17254245e-01
      3.17254245e-01 3.17254245e-01 7.20113367e-02 7.34472945e-02
      7.12840855e-02 4.01430428e-02 5.61097190e-02 5.64449094e-02
      1.08982682e-01 2.35362917e-01 1.70881733e-01 1.03443697e-01
      7.87100941e-02 8.78781900e-02 4.01406772e-02 3.88945043e-02
      5.83649278e-02 1.40993252e-01 3.12680602e-01 2.47996643e-01
      1.27006948e-01 7.31846169e-02 9.77282301e-02 9.47765559e-02
      1.42875612e-01 1.70386091e-01 2.09953606e-01 2.71616489e-01
      2.71616489e-01 1.31038100e-01 7.59033114e-02 7.46510476e-02
      1.05638929e-01 1.19080231e-01 1.05160534e-01 1.85833648e-01
      2.71616489e-01 2.71616489e-01 8.42376128e-02 8.99671093e-02
      1.67812675e-01 1.23250037e-01 7.91683793e-02 9.34167802e-02
      1.14458628e-01 2.62958437e-01 2.42456257e-01 8.60241577e-02
      9.41769183e-02 2.06516817e-01 2.08635986e-01 1.08541280e-01
      1.10246308e-01 1.18520729e-01 2.64485240e-01 2.10354134e-01
      5.52068464e-02 3.70071977e-02 6.91434965e-02 1.01237208e-01
      1.11197628e-01 1.24368131e-01 1.08754419e-01 2.44644448e-01
      1.45348698e-01 9.17537883e-02 6.71693385e-02 2.35433489e-01
      1.93431571e-01 1.54277042e-01 1.57478213e-01 1.14756174e-01
      1.45205542e-01 1.00663260e-01 1.40778214e-01 8.65929797e-02
      2.23491609e-01 2.01299265e-01 1.22951083e-01 1.51073724e-01
      1.81633353e-01 2.53466338e-01 2.53466338e-01 2.05065787e-01
      1.20459542e-01 2.53466338e-01 1.67712405e-01 1.01539806e-01
      1.50214732e-01 1.76385239e-01 2.53466338e-01 2.53466338e-01
      1.34770915e-01 1.48022458e-01 1.62429407e-01 9.67719033e-02
      1.26438648e-01 1.05827868e-01 1.73883602e-01 2.44117931e-01
      2.44117931e-01 1.87374681e-01 1.62954181e-01 1.57226518e-01
      7.71802291e-02 7.10561052e-02 8.47405121e-02 1.89967528e-01
      2.44117931e-01 2.44117931e-01 1.32157445e-01 1.98822245e-01
      2.12144166e-01 1.32785350e-01 1.77702218e-01 9.30231661e-02
      6.47501945e-02 8.94388258e-02 1.18067503e-01 1.92100555e-01
      2.44117931e-01 2.44117931e-01 1.12473764e-01 1.50952920e-01
      7.55159333e-02 1.27353355e-01 1.84006736e-01 2.27994293e-01
      9.78541300e-02 1.65349871e-01 2.23214909e-01 1.37349531e-01
      8.59958306e-02 1.24102205e-01 1.34274080e-01 2.23214909e-01
      2.23214909e-01 1.00398414e-01 1.96967691e-01 2.23214909e-01
      2.23214909e-01 1.22674063e-01 1.42238006e-01 1.29436865e-01
      2.17019141e-01 1.76245406e-01 1.21223599e-01 2.23214909e-01
      2.23214909e-01 1.04924373e-01 1.10814944e-01 2.18465447e-01
      2.23214909e-01 9.68655124e-02 1.03996687e-01 1.28473312e-01
      2.23214909e-01 2.23214909e-01 1.07993931e-01 9.89701748e-02
      1.86463073e-01 1.65538266e-01 8.20049196e-02 1.05231859e-01
      1.14329055e-01 7.80448765e-02 1.95174009e-01 1.75069422e-01
      1.17731430e-01 1.33109987e-01 1.49944201e-01 2.47143894e-01
      2.40954459e-01 1.58635750e-01 9.66875777e-02 1.90266967e-01
      1.27634272e-01 8.75129551e-02 1.22332633e-01 1.59889221e-01
      2.47143894e-01 2.47143894e-01 9.60658789e-02 9.38405693e-02
      1.28291830e-01 1.38113782e-01 1.29451737e-01 1.91790462e-01
      1.60822228e-01 2.31097430e-01 1.94555134e-01 1.73079610e-01
      1.21322878e-01 1.37057394e-01 1.24244504e-01 1.22378759e-01
      1.33467034e-01 1.44882202e-01 2.47143894e-01 2.47143894e-01</_>
    <_>
      2.33965501e-01 2.10827470e-01 1.83792397e-01 8.72823671e-02
      1.41958103e-01 1.81213453e-01 1.52162209e-01 2.33965501e-01
      2.33965501e-01 1.33196369e-01 1.15544200e-01 1.03569910e-01
      6.54486120e-02 1.17871866e-01 1.72839433e-01 2.14717746e-01
      2.33965501e-01 2.33965501e-01 7.58022666e-02 7.17737153e-02
      5.34544066e-02 4.23111729e-02 8.87397751e-02 1.40827537e-01
      1.25212878e-01 2.33965501e-01 2.32429788e-01 7.02259839e-02
      5.58798648e-02 4.11956459e-02 6.41869903e-02 1.59609139e-01
      2.33965501e-01 2.33965501e-01 2.33965501e-01 2.33965501e-01
      7.44031966e-02 7.80461729e-02 9.07095671e-02 2.85351276e-02
      3.75965238e-02 3.39028612e-02 8.61396119e-02 3.43590736e-01
      2.82945484e-01 6.27134293e-02 4.32662703e-02 4.29650992e-02
      1.49903372e-02 2.33774111e-02 2.16634888e-02 5.03183752e-02
      3.43590736e-01 2.48484105e-01 1.00280799e-01 6.21943362e-02
      7.34250024e-02 6.01714812e-02 1.02630347e-01 1.15076222e-01
      1.35649785e-01 3.43590736e-01 3.43590736e-01 1.22193038e-01
      5.39223664e-02 5.37681133e-02 3.81233431e-02 4.49683480e-02
      5.25233373e-02 1.10835373e-01 3.43590736e-01 3.43590736e-01
      1.06688552e-01 7.63027593e-02 8.82130042e-02 8.66900608e-02
      1.42259061e-01 1.14661992e-01 1.40046313e-01 2.32328832e-01
      1.46790475e-01 1.36990890e-01 1.14891768e-01 1.91287562e-01
      1.59092695e-01 2.35698029e-01 2.05884978e-01 2.40495399e-01
      2.40495399e-01 1.65061235e-01 6.80518597e-02 4.37340029e-02
      9.41812471e-02 9.64432880e-02 1.49942338e-01 1.45284340e-01
      1.13725014e-01 2.40495399e-01 2.24414736e-01 8.77361223e-02
      8.70364085e-02 2.40495399e-01 2.36871302e-01 2.40495399e-01
      2.40495399e-01 1.83636963e-01 1.65285349e-01 8.04117098e-02
      1.07161835e-01 6.19071163e-02 4.00082134e-02 3.86938527e-02
      9.46903005e-02 1.78716153e-01 1.77776396e-01 2.65379369e-01
      2.65379369e-01 1.12239689e-01 7.26542994e-02 7.31009021e-02
      1.03897192e-01 2.38413498e-01 2.65379369e-01 2.65379369e-01
      2.65379369e-01 2.65379369e-01 1.13600567e-01 5.69349304e-02
      3.78059000e-02 3.49800028e-02 5.59259504e-02 1.79314300e-01
      1.99008048e-01 1.93645805e-01 1.73680693e-01 1.09826371e-01
      8.11659172e-02 1.00021258e-01 7.69115016e-02 7.76402578e-02
      1.40743807e-01 2.34440044e-01 2.65379369e-01 2.14167342e-01
      1.10444210e-01 6.00442514e-02 8.08460787e-02 8.34831744e-02
      1.27511218e-01 1.46756068e-01 1.57636791e-01 3.28791797e-01
      3.28791797e-01 1.45757437e-01 6.83806539e-02 7.32957944e-02
      6.93028569e-02 7.15572089e-02 7.95162171e-02 1.40608102e-01
      3.28791797e-01 3.28791797e-01 8.17188919e-02 1.02073140e-01
      1.82837188e-01 1.32209420e-01 8.67594928e-02 8.34261104e-02
      9.84245241e-02 1.97315946e-01 1.86664283e-01 9.43854153e-02
      1.06549755e-01 1.59057856e-01 1.41015887e-01 1.27083004e-01
      1.27869263e-01 1.14466615e-01 2.82912195e-01 2.19060838e-01
      6.72197491e-02 4.42211106e-02 9.77282450e-02 1.00216426e-01
      1.17366455e-01 1.24136336e-01 9.92935449e-02 2.70032257e-01
      2.05660626e-01 9.28163081e-02 7.99579695e-02 2.70032257e-01
      1.89249486e-01 1.75146326e-01 1.86548099e-01 1.00854009e-01
      9.77768600e-02 1.04229107e-01 1.16204634e-01 1.00775905e-01
      1.54879704e-01 1.53684109e-01 1.49216563e-01 1.68680131e-01
      1.75295025e-01 2.70032257e-01 2.70032257e-01 1.57066435e-01
      1.19792037e-01 2.22153425e-01 1.52039856e-01 9.52195078e-02
      1.19707853e-01 1.33774072e-01 2.70032257e-01 2.70032257e-01
      1.19392470e-01 6.31384328e-02 4.12942357e-02 4.00309414e-02
      9.63953063e-02 2.28377536e-01 2.28377536e-01 2.28377536e-01
      1.95095614e-01 1.17197767e-01 1.00409381e-01 1.05013892e-01
      6.52671531e-02 8.58025923e-02 1.41454801e-01 2.08631173e-01
      2.28377536e-01 2.23258272e-01 6.13393262e-02 5.49086668e-02
      6.73825294e-02 8.55737180e-02 2.28377536e-01 2.28377536e-01
      2.28377536e-01 2.07542494e-01 1.10421427e-01 1.18250385e-01
      1.60099074e-01 2.27646917e-01 1.49156079e-01 2.28377536e-01
      2.28377536e-01 2.10835367e-01 2.11707383e-01 1.50649950e-01
      1.31281942e-01 2.26507545e-01 2.26507545e-01 1.93028823e-01
      1.22286968e-01 9.58654881e-02 9.83348861e-02 1.67000115e-01
      1.67273730e-01 1.44885674e-01 2.25865826e-01 2.26507545e-01
      2.04601392e-01 1.91725746e-01 1.95053264e-01 1.47784978e-01
      2.26507545e-01 1.84519947e-01 2.26507545e-01 2.26507545e-01
      2.26507545e-01 1.52444243e-01 1.26570567e-01 7.14968145e-02
      6.98896945e-02 6.15498871e-02 1.26826555e-01 2.14024693e-01
      2.26507545e-01 1.73503712e-01 9.67448205e-02 9.16650221e-02
      1.10427640e-01 1.11010760e-01 6.05050288e-02 8.70106444e-02
      1.09731078e-01 1.06097966e-01 1.33836478e-01 1.20875299e-01
      1.24173984e-01 1.49173453e-01 1.72667101e-01 2.47604042e-01
      2.47604042e-01 1.63623959e-01 1.02162570e-01 1.40402213e-01
      1.05832055e-01 7.64076263e-02 1.02379076e-01 1.35208338e-01
      2.47604042e-01 2.47604042e-01 1.27096951e-01 1.29461557e-01
      1.53879568e-01 1.34123877e-01 1.42604202e-01 1.78111538e-01
      2.06670493e-01 1.98186427e-01 1.32743880e-01 2.20135480e-01
      1.23568736e-01 1.46707177e-01 1.17495343e-01 1.71423301e-01
      1.64730281e-01 1.51236415e-01 2.47604042e-01 2.45461494e-01</_>
    <_>
      1.07676849e-01 7.00693950e-02 7.05256909e-02 7.69195855e-02
      1.72394782e-01 1.89547926e-01 2.44549796e-01 2.44549796e-01
      2.44549796e-01 1.28860027e-01 8.05616900e-02 7.55470395e-02
      7.12825060e-02 1.81575209e-01 1.93923682e-01 2.44549796e-01
      2.44549796e-01 2.44549796e-01 1.05485074e-01 8.24678838e-02
      6.72982633e-02 4.46141772e-02 7.61790201e-02 1.05584368e-01
      1.63805619e-01 2.44549796e-01 1.98027894e-01 1.41224995e-01
      1.46571428e-01 1.39112785e-01 1.06041692e-01 1.61927745e-01
      1.77370131e-01 1.57035813e-01 2.44549796e-01 2.44549796e-01
      1.13644779e-01 6.39076307e-02 5.44098951e-02 4.90336008e-02
      8.15383047e-02 9.11060870e-02 1.25619277e-01 2.98656136e-01
      2.98656136e-01 1.32731512e-01 6.75803646e-02 5.12149259e-02
      4.57514897e-02 4.44996804e-02 5.53466491e-02 1.12938464e-01
      2.98656136e-01 2.98656136e-01 7.76206031e-02 1.31711558e-01
      1.36138156e-01 1.13756076e-01 1.47664532e-01 1.59927070e-01
      1.11336641e-01 2.34379724e-01 2.29709819e-01 1.08046778e-01
      1.07388787e-01 9.71721709e-02 9.98121798e-02 1.29623130e-01
      1.96959332e-01 2.08611906e-01 2.98656136e-01 2.98656136e-01
      1.25707805e-01 5.16863279e-02 2.78060883e-02 2.02872902e-02
      3.15761119e-02 3.55744399e-02 7.55501017e-02 3.33377510e-01
      3.33377510e-01 8.51172954e-02 2.84793172e-02 1.19990269e-02
      6.28864719e-03 1.32444063e-02 2.24703010e-02 4.67769615e-02
      3.06730479e-01 3.33377510e-01 1.33024320e-01 5.62137850e-02
      3.63329463e-02 3.91472206e-02 4.25429456e-02 7.07855448e-02
      1.48739189e-01 3.33377510e-01 3.33377510e-01 1.29134715e-01
      5.06024063e-02 2.39665844e-02 1.60480663e-02 2.40270235e-02
      4.40780222e-02 1.03073716e-01 3.33377510e-01 3.33377510e-01
      1.19805627e-01 1.07502751e-01 8.41772407e-02 4.56099361e-02
      7.29594007e-02 9.90629420e-02 1.30611464e-01 2.07511500e-01
      1.82975084e-01 1.56651407e-01 1.98390558e-01 1.73041597e-01
      1.14543200e-01 1.66977763e-01 2.00454846e-01 1.58220261e-01
      2.07511500e-01 2.07511500e-01 1.74458966e-01 1.73601344e-01
      1.47092730e-01 1.23737879e-01 1.63185105e-01 1.58161357e-01
      1.70445517e-01 1.94723070e-01 2.05941767e-01 1.97018743e-01
      2.07511500e-01 2.07511500e-01 1.40830338e-01 1.60358310e-01
      2.07511500e-01 2.07511500e-01 1.70033038e-01 1.54486105e-01
      1.06933005e-01 2.09216610e-01 1.79485470e-01 1.31119922e-01
      1.71222776e-01 1.93219170e-01 1.15903549e-01 1.49413377e-01
      1.56756997e-01 1.20237999e-01 1.54595554e-01 1.45876005e-01
      1.35583535e-01 1.77875385e-01 2.23581627e-01 2.23581627e-01
      2.23581627e-01 2.23581627e-01 1.93202734e-01 2.13166848e-01
      1.42979234e-01 8.74813199e-02 1.02102838e-01 1.09362677e-01
      6.74460903e-02 6.36003613e-02 1.19834654e-01 2.23581627e-01
      2.23581627e-01 2.15793625e-01 1.41971737e-01 1.64583072e-01
      1.56438217e-01 1.11890063e-01 1.74068272e-01 1.98173478e-01
      1.28086045e-01 4.73379865e-02 3.52319255e-02 4.52002399e-02
      4.40006256e-02 6.13896325e-02 1.17194504e-01 2.73154378e-01
      2.73154378e-01 1.85365796e-01 4.83892597e-02 1.98286809e-02
      1.71584897e-02 2.64214482e-02 3.64384167e-02 8.79364610e-02
      2.73154378e-01 2.73154378e-01 2.72413701e-01 1.56147599e-01
      1.34763300e-01 8.77623558e-02 1.58007070e-01 1.38628036e-01
      1.32538751e-01 2.46575207e-01 2.73154378e-01 2.73154378e-01
      1.21171437e-01 8.03279504e-02 5.98729253e-02 1.22751266e-01
      1.10352635e-01 1.13467865e-01 2.73154378e-01 2.73154378e-01
      1.74347401e-01 1.71027526e-01 1.56245276e-01 1.44856498e-01
      1.88304752e-01 1.77597165e-01 2.05477163e-01 1.98117912e-01
      2.05477163e-01 1.87431693e-01 2.05477163e-01 2.05477163e-01
      1.49065182e-01 1.41390339e-01 1.94031060e-01 2.05477163e-01
      1.92649692e-01 1.64903656e-01 1.25139520e-01 1.45956889e-01
      1.35689065e-01 1.87574849e-01 2.05477163e-01 1.46582365e-01
      1.48354635e-01 1.46342441e-01 1.43888667e-01 1.14117816e-01
      1.59586027e-01 1.63933843e-01 1.44807354e-01 1.48350731e-01
      8.94058645e-02 1.35544792e-01 1.52245536e-01 1.41310990e-01
      2.21029207e-01 1.91402450e-01 1.37264296e-01 1.02882355e-01
      1.17421500e-01 1.00328937e-01 7.60345981e-02 1.04697369e-01
      1.76223889e-01 2.22948313e-01 2.22948313e-01 2.22948313e-01
      1.95538521e-01 2.19540671e-01 1.52759537e-01 1.25973344e-01
      2.22948313e-01 2.22948313e-01 1.12828910e-01 1.02396294e-01
      9.74969938e-02 1.03333138e-01 1.37454957e-01 6.04218431e-02
      6.15426414e-02 1.84723467e-01 1.82109416e-01 1.68180451e-01
      1.71428218e-01 1.95251271e-01 2.22948313e-01 2.22948313e-01
      1.39374927e-01 1.19267270e-01 1.86111405e-01 1.91115499e-01
      2.37412691e-01 1.88837931e-01 1.69485316e-01 1.01709016e-01
      2.06423581e-01 1.88824296e-01 1.79523945e-01 2.37412691e-01
      2.37412691e-01 2.37412691e-01 1.35876581e-01 1.00257337e-01
      7.52110630e-02 1.73648864e-01 1.60023987e-01 1.39027894e-01
      2.37412691e-01 2.37412691e-01 1.13152370e-01 6.42836094e-02
      6.55239671e-02 6.45861402e-02 1.62315443e-01 1.99233443e-01
      1.75801784e-01 1.78616136e-01 2.01123461e-01 1.46484792e-01
      4.59885783e-02 3.72283719e-02 3.29638794e-02 1.04172856e-01
      1.18964709e-01 9.40883234e-02 2.32346147e-01 2.37412691e-01</_>
    <_>
      1.08884938e-01 9.29929987e-02 7.28107095e-02 7.61398748e-02
      1.48254707e-01 1.80371627e-01 2.46418193e-01 2.46418193e-01
      2.46418193e-01 1.15655929e-01 8.45582187e-02 6.39844760e-02
      7.39340335e-02 1.55229092e-01 1.75916523e-01 2.46418193e-01
      2.46418193e-01 2.46418193e-01 1.18229613e-01 8.81338045e-02
      5.69461323e-02 3.82787548e-02 6.07391372e-02 9.79490951e-02
      1.83307827e-01 2.46418193e-01 2.18619317e-01 1.39528871e-01
      1.36339486e-01 1.16058968e-01 1.02837175e-01 1.49955422e-01
      1.89261481e-01 1.95584074e-01 2.46418193e-01 2.46418193e-01
      1.31072283e-01 6.73745498e-02 5.51548563e-02 5.88693246e-02
      7.08879754e-02 7.82574862e-02 1.25548154e-01 3.07720333e-01
      3.07720333e-01 1.46649107e-01 7.11569190e-02 5.75570799e-02
      3.83401886e-02 3.64182927e-02 5.16844019e-02 1.04962312e-01
      3.07720333e-01 3.07720333e-01 1.11940198e-01 1.43244371e-01
      1.59056261e-01 1.05802491e-01 1.16046540e-01 1.17956720e-01
      9.96298939e-02 2.83877373e-01 2.34582022e-01 1.37788862e-01
      1.12518840e-01 1.09163418e-01 8.74369740e-02 1.14300318e-01
      8.63180310e-02 1.14372484e-01 3.07720333e-01 3.07720333e-01
      1.18676201e-01 6.11873791e-02 3.29728872e-02 2.68265828e-02
      2.35010199e-02 3.13600637e-02 6.74016699e-02 3.35477769e-01
      3.35477769e-01 7.26556778e-02 3.37622240e-02 1.42966919e-02
      1.08868163e-02 1.09541379e-02 2.04117149e-02 4.39809188e-02
      3.01798880e-01 3.35477769e-01 1.17985077e-01 6.46980181e-02
      3.24669145e-02 3.41475010e-02 3.88609320e-02 6.20861687e-02
      1.68196961e-01 3.35477769e-01 3.35477769e-01 1.08818650e-01
      5.06768227e-02 2.44010314e-02 1.66781712e-02 1.54827405e-02
      3.60069163e-02 1.09640568e-01 3.35477769e-01 3.35477769e-01
      1.30970195e-01 1.00655116e-01 7.32659623e-02 4.10955921e-02
      5.18861078e-02 8.46130997e-02 1.44815147e-01 2.11876035e-01
      2.11876035e-01 1.48758322e-01 1.75508812e-01 1.47809595e-01
      1.10042408e-01 1.53942302e-01 2.11876035e-01 2.02833489e-01
      2.11876035e-01 2.11876035e-01 2.00896829e-01 2.11876035e-01
      2.01513663e-01 8.76376107e-02 1.10635743e-01 1.05567187e-01
      1.21320345e-01 2.00091839e-01 2.11876035e-01 1.96308553e-01
      2.11876035e-01 2.11876035e-01 1.09226331e-01 1.35249421e-01
      2.11876035e-01 2.11876035e-01 1.52372256e-01 1.68576702e-01
      1.49764791e-01 2.24818066e-01 2.24818066e-01 1.37779340e-01
      1.53349116e-01 1.58146203e-01 1.15928546e-01 2.03899860e-01
      1.82371318e-01 1.62109941e-01 1.68972716e-01 1.69295579e-01
      1.31350785e-01 1.81474596e-01 1.40458003e-01 1.44155219e-01
      2.24818066e-01 2.24818066e-01 2.21829787e-01 2.22236797e-01
      1.41343161e-01 8.85532945e-02 8.77229720e-02 1.24585837e-01
      1.09841339e-01 7.09436834e-02 1.42883182e-01 1.61078140e-01
      1.46822244e-01 2.04741701e-01 1.87852547e-01 1.53790474e-01
      1.98947355e-01 1.74268395e-01 1.23287290e-01 1.50069237e-01
      1.09824315e-01 5.06386682e-02 3.39862965e-02 3.37920263e-02
      4.12013419e-02 5.51569983e-02 1.44161418e-01 2.82357782e-01
      2.82357782e-01 1.51232108e-01 4.38264124e-02 2.07955800e-02
      1.53258583e-02 1.74493678e-02 3.06262411e-02 9.92677510e-02
      2.82357782e-01 2.82357782e-01 2.52014458e-01 1.08329818e-01
      1.29827023e-01 9.61013585e-02 1.49096191e-01 1.27334341e-01
      1.47364825e-01 2.42851064e-01 2.82357782e-01 2.82357782e-01
      1.01527952e-01 7.26894140e-02 5.91921471e-02 1.14342801e-01
      1.04523778e-01 1.29620880e-01 2.82357782e-01 2.82357782e-01
      2.11219102e-01 2.11219102e-01 2.11219102e-01 1.23238347e-01
      1.55370533e-01 1.33699894e-01 1.45005375e-01 2.06034988e-01
      2.11219102e-01 2.09430113e-01 2.11219102e-01 2.11219102e-01
      1.26018584e-01 1.20801978e-01 1.71965465e-01 2.11219102e-01
      1.81089610e-01 1.75742507e-01 1.04974374e-01 1.11620590e-01
      1.86381698e-01 2.11219102e-01 2.11219102e-01 1.55019552e-01
      1.55411154e-01 1.57920972e-01 1.20373912e-01 1.05848268e-01
      1.15525149e-01 1.71720460e-01 1.69990927e-01 1.43906444e-01
      8.40161964e-02 1.31594419e-01 1.46019325e-01 1.13712043e-01
      2.17279941e-01 1.93367496e-01 1.14749849e-01 7.95421079e-02
      7.22869039e-02 1.32636994e-01 1.36372700e-01 1.27191991e-01
      2.17279941e-01 2.04047531e-01 1.59607351e-01 2.17279941e-01
      2.15617076e-01 1.60182461e-01 2.17279941e-01 2.17279941e-01
      1.71609104e-01 2.17071161e-01 1.34467646e-01 9.05997902e-02
      8.44114795e-02 3.40144932e-02 4.38682064e-02 5.28645068e-02
      7.24180341e-02 2.12463051e-01 2.17279941e-01 1.86571896e-01
      1.41447634e-01 1.48084983e-01 1.03402846e-01 2.04232663e-01
      2.17279941e-01 1.54275611e-01 2.17279941e-01 2.17279941e-01
      2.33581096e-01 1.39220029e-01 1.55207425e-01 1.00795507e-01
      1.63594127e-01 1.34878293e-01 1.38978839e-01 2.32434317e-01
      2.33581096e-01 2.33581096e-01 1.08125448e-01 8.58964026e-02
      7.12593645e-02 1.51084244e-01 1.33293971e-01 1.34623930e-01
      2.33581096e-01 2.33581096e-01 1.57540441e-01 1.22268535e-01
      1.32951543e-01 9.73225385e-02 1.57071352e-01 1.69308886e-01
      1.76811829e-01 2.33581096e-01 2.33581096e-01 1.41070932e-01
      6.49576634e-02 6.09013215e-02 6.00443184e-02 1.32999480e-01
      1.57219648e-01 1.62712112e-01 2.33581096e-01 2.33581096e-01</_>
    <_>
      1.06645919e-01 7.43019804e-02 6.53204992e-02 7.88177475e-02
      1.56768993e-01 1.90626770e-01 2.60647595e-01 2.60647595e-01
      2.60647595e-01 9.36185792e-02 7.00905174e-02 8.50841776e-02
      8.09530616e-02 1.63572922e-01 1.67243034e-01 2.25950107e-01
      2.60647595e-01 2.60647595e-01 9.35734659e-02 8.20403248e-02
      8.12572762e-02 6.54633194e-02 8.68745819e-02 1.11267798e-01
      9.16450471e-02 2.43108734e-01 2.38687456e-01 1.14099555e-01
      1.44038826e-01 1.64463401e-01 1.23581946e-01 1.34522825e-01
      1.60638854e-01 1.23386607e-01 2.60647595e-01 2.49494463e-01
      9.14023966e-02 9.48165953e-02 1.09903626e-01 4.90911901e-02
      3.74062769e-02 4.08432931e-02 1.25671551e-01 2.86703974e-01
      2.86703974e-01 7.33907595e-02 4.97894138e-02 5.01140617e-02
      2.56833285e-02 2.40847524e-02 2.71286666e-02 1.04286820e-01
      2.86703974e-01 2.86703974e-01 1.22779846e-01 1.28066018e-01
      1.53643966e-01 1.10202961e-01 1.15616158e-01 1.44259498e-01
      1.53475106e-01 2.86703974e-01 2.86703974e-01 1.23977832e-01
      8.65793973e-02 8.30836073e-02 9.84769538e-02 1.04035072e-01
      1.73503295e-01 2.45492071e-01 2.86703974e-01 2.86703974e-01
      5.96516617e-02 3.62628885e-02 6.59289584e-02 1.02051720e-01
      1.48984790e-01 9.61876214e-02 1.22533821e-01 1.87779263e-01
      1.30885378e-01 9.94516313e-02 8.02754536e-02 2.29839802e-01
      2.29839802e-01 2.29839802e-01 2.19336733e-01 2.29839802e-01
      2.11063862e-01 1.37286007e-01 8.07113051e-02 7.25717917e-02
      1.25405282e-01 1.74955472e-01 1.81452438e-01 1.98610798e-01
      1.73652977e-01 2.29839802e-01 1.81305677e-01 1.34869874e-01
      1.21808395e-01 2.29839802e-01 2.29839802e-01 2.29839802e-01
      2.26715937e-01 1.30259007e-01 1.19487204e-01 1.39916927e-01
      9.19908658e-02 9.90466550e-02 1.22820526e-01 7.22168013e-02
      8.31507444e-02 1.35792136e-01 1.28070161e-01 1.65037543e-01
      1.93192557e-01 1.26435623e-01 2.05936268e-01 2.13670939e-01
      1.35698423e-01 1.35921821e-01 2.07748041e-01 1.59984693e-01
      1.56584933e-01 1.85696587e-01 1.43027544e-01 1.86008215e-01
      2.21496180e-01 1.27604902e-01 1.29259959e-01 2.21496180e-01
      2.21496180e-01 1.74347594e-01 1.84438273e-01 1.81464255e-01
      2.21496180e-01 2.21496180e-01 1.19505718e-01 1.24908783e-01
      2.21496180e-01 2.21496180e-01 9.55033004e-02 1.27990335e-01
      1.23536572e-01 1.24321878e-01 1.42451122e-01 1.10172108e-01
      1.29941285e-01 1.73866540e-01 1.44990236e-01 2.30408862e-01
      2.24165350e-01 1.35852560e-01 1.01675607e-01 1.02058195e-01
      1.19782805e-01 1.29786298e-01 2.18011826e-01 2.30408862e-01
      2.30408862e-01 2.30408862e-01 1.18348695e-01 1.27651274e-01
      1.61286324e-01 1.00370869e-01 8.64156410e-02 1.34560153e-01
      1.34775549e-01 9.68547910e-02 1.05776064e-01 2.08039373e-01
      1.71188563e-01 2.30408862e-01 1.53049797e-01 1.15139060e-01
      1.83199599e-01 2.30408862e-01 2.30408862e-01 2.30408862e-01
      7.04129040e-02 5.91406077e-02 9.90991071e-02 1.19882107e-01
      1.04034536e-01 1.24536075e-01 1.15144908e-01 2.05929875e-01
      1.49953127e-01 1.05017878e-01 9.11744907e-02 2.43077666e-01
      1.61286131e-01 1.22877821e-01 1.32383242e-01 1.09350219e-01
      1.77263185e-01 1.74048856e-01 2.19634965e-01 1.20886795e-01
      1.76117525e-01 1.27096787e-01 1.11775704e-01 1.57013446e-01
      1.84107602e-01 2.57049024e-01 2.57049024e-01 2.48472214e-01
      1.54262885e-01 1.97332606e-01 1.36787847e-01 9.23189893e-02
      1.15612477e-01 1.97792515e-01 2.57049024e-01 2.57049024e-01
      1.43886715e-01 1.83818847e-01 2.16105133e-01 1.38526395e-01
      1.40918508e-01 2.16105133e-01 2.16105133e-01 1.90321445e-01
      1.75275773e-01 1.67686552e-01 2.16105133e-01 2.16105133e-01
      1.19885288e-01 1.18810080e-01 2.16105133e-01 2.16105133e-01
      1.18963934e-01 1.31195560e-01 1.16460897e-01 1.36239469e-01
      1.89727008e-01 1.93808317e-01 2.02715755e-01 1.64495781e-01
      2.01187506e-01 1.76909044e-01 1.28820151e-01 8.27704072e-02
      1.06922165e-01 1.30160913e-01 1.17913790e-01 1.88155189e-01
      1.80228442e-01 1.36712074e-01 1.20560564e-01 1.00164771e-01
      1.18683852e-01 1.19157515e-01 1.60225928e-01 1.10369958e-01
      8.49530920e-02 1.09042943e-01 1.25497505e-01 1.02818757e-01
      1.22939125e-01 2.25073606e-01 2.16332480e-01 2.25073606e-01
      1.65428653e-01 1.22977063e-01 1.56460494e-01 2.24418432e-01
      2.25073606e-01 2.25073606e-01 1.01095915e-01 1.00759380e-01
      1.18642300e-01 1.13679007e-01 1.75686806e-01 1.11423053e-01
      5.16458750e-02 1.24869883e-01 1.86901331e-01 1.99397385e-01
      2.25073606e-01 2.20487639e-01 1.76355094e-01 2.25073606e-01
      1.92181185e-01 1.15083843e-01 1.97057933e-01 2.25073606e-01
      2.20445156e-01 1.15056947e-01 1.46830946e-01 9.58399177e-02
      9.93774161e-02 1.43619627e-01 1.89680099e-01 2.59803504e-01
      2.59803504e-01 2.39663109e-01 1.38566598e-01 1.47989646e-01
      1.02701925e-01 7.80944675e-02 9.78246853e-02 1.91731408e-01
      2.59803504e-01 2.59803504e-01 1.25256985e-01 8.54336619e-02
      5.88844828e-02 5.43810725e-02 1.00424044e-01 1.53375253e-01
      1.62755415e-01 2.30232313e-01 2.28022993e-01 1.97160766e-01
      1.13237515e-01 5.75156286e-02 3.64883132e-02 4.89382595e-02
      7.36556724e-02 1.28991112e-01 2.53044158e-01 2.59803504e-01</_>
    <_>
      2.49102712e-01 1.71100155e-01 1.41693383e-01 7.99018815e-02
      1.56813309e-01 1.64072692e-01 1.58062935e-01 2.49102712e-01
      2.49102712e-01 2.18421280e-01 1.24710053e-01 1.08747393e-01
      6.30216897e-02 1.17009230e-01 1.30035266e-01 2.49102712e-01
      2.49102712e-01 2.49102712e-01 9.35000926e-02 9.74403024e-02
      8.98670703e-02 4.88394946e-02 6.95980266e-02 8.51149559e-02
      1.13696657e-01 2.49102712e-01 2.05300674e-01 9.24820676e-02
      6.89631104e-02 8.16138387e-02 5.45892641e-02 8.04297999e-02
      1.09448813e-01 2.44728565e-01 2.49102712e-01 2.49102712e-01
      6.85991123e-02 6.76576346e-02 9.55914035e-02 2.35626344e-02
      2.91311890e-02 3.77778262e-02 1.08466543e-01 3.36261481e-01
      2.98318028e-01 5.30373082e-02 3.61203589e-02 4.18261886e-02
      1.02680121e-02 1.66251194e-02 2.06768364e-02 6.03746101e-02
      3.36261481e-01 2.56876171e-01 1.04674406e-01 6.69378415e-02
      8.42276961e-02 6.44845515e-02 9.72145647e-02 1.04429707e-01
      1.80581704e-01 3.36261481e-01 3.36261481e-01 1.21119142e-01
      5.61766811e-02 4.96364050e-02 4.84963767e-02 5.42721078e-02
      5.12358807e-02 1.09653369e-01 3.36261481e-01 3.36261481e-01
      1.03080504e-01 7.69881159e-02 7.26414099e-02 9.37127545e-02
      1.22762747e-01 9.97713059e-02 1.44269824e-01 2.42480382e-01
      2.01077491e-01 1.08255044e-01 9.56842154e-02 1.56838641e-01
      1.41576201e-01 1.76686332e-01 1.45657405e-01 2.42480382e-01
      2.42480382e-01 2.07124546e-01 6.70841113e-02 4.27735075e-02
      7.13800564e-02 1.24879643e-01 1.51674181e-01 1.35687098e-01
      1.02773458e-01 2.42480382e-01 2.42480382e-01 6.36661276e-02
      6.56080395e-02 2.42480382e-01 2.42480382e-01 2.42480382e-01
      2.17607990e-01 2.11969763e-01 2.42480382e-01 1.05030842e-01
      1.16891541e-01 7.82787427e-02 6.62012547e-02 5.18322065e-02
      8.26868787e-02 1.08918726e-01 1.59833044e-01 3.20755064e-01
      3.20755064e-01 1.35562509e-01 6.73173368e-02 8.67698565e-02
      7.51612112e-02 1.14459403e-01 1.66609421e-01 3.20755064e-01
      3.20755064e-01 3.20755064e-01 8.37445557e-02 4.75770496e-02
      3.57703604e-02 2.86274664e-02 5.74046969e-02 6.68183938e-02
      1.04802825e-01 2.25214869e-01 1.83344156e-01 1.06081776e-01
      6.54472634e-02 6.34720474e-02 3.98160703e-02 4.53995243e-02
      6.22968785e-02 1.53058618e-01 3.20755064e-01 2.57802933e-01
      1.11915544e-01 7.29661882e-02 7.87736773e-02 8.64359960e-02
      1.25216514e-01 1.27601475e-01 1.99247956e-01 3.18528354e-01
      3.18528354e-01 1.55056790e-01 7.04958886e-02 5.96880764e-02
      7.57115483e-02 7.86369517e-02 6.94245994e-02 1.24938078e-01
      3.18528354e-01 3.18528354e-01 7.20646232e-02 1.04522504e-01
      1.53052166e-01 1.19504951e-01 9.22543183e-02 8.81032050e-02
      1.01493046e-01 2.24283710e-01 2.02940732e-01 1.42196625e-01
      1.41927004e-01 1.49475366e-01 1.08681969e-01 8.33026022e-02
      7.98596069e-02 8.88454318e-02 2.81968981e-01 2.75223196e-01
      7.49747008e-02 4.04199250e-02 6.92385435e-02 9.77431908e-02
      1.03927784e-01 1.12294711e-01 8.43681768e-02 2.67944723e-01
      2.23545879e-01 9.12366211e-02 6.42740503e-02 2.47978449e-01
      1.82788223e-01 1.54904008e-01 1.53335303e-01 1.13347962e-01
      1.23670027e-01 8.64714980e-02 1.78201348e-01 1.10830046e-01
      1.45037219e-01 1.06770411e-01 1.05944902e-01 1.60698026e-01
      1.83481649e-01 2.67944723e-01 2.67944723e-01 2.26414382e-01
      1.28220394e-01 2.27241591e-01 1.34564415e-01 9.98184234e-02
      1.48678899e-01 1.70445830e-01 2.67944723e-01 2.67944723e-01
      1.74798161e-01 1.25004202e-01 1.05588600e-01 7.70796910e-02
      1.39011443e-01 1.43228933e-01 2.05271795e-01 2.41841301e-01
      2.41841301e-01 2.12146193e-01 1.45833790e-01 1.39505774e-01
      7.92644173e-02 7.65979216e-02 9.23106298e-02 2.10843086e-01
      2.41841301e-01 2.41841301e-01 1.33898154e-01 1.84741005e-01
      2.02947810e-01 1.18035056e-01 1.51333570e-01 9.79861766e-02
      8.30322504e-02 1.47163972e-01 1.50206551e-01 1.49568737e-01
      1.48926273e-01 2.41841301e-01 1.47386760e-01 1.23141281e-01
      6.70543015e-02 1.23845004e-01 2.41841301e-01 2.41841301e-01
      8.98630917e-02 1.77313849e-01 2.35331655e-01 1.97572708e-01
      1.22926980e-01 9.20366421e-02 1.03817306e-01 2.31013909e-01
      2.32320443e-01 1.85044274e-01 2.35331655e-01 2.35331655e-01
      1.71972632e-01 1.27052218e-01 1.10933654e-01 1.04641713e-01
      2.35331655e-01 2.35331655e-01 1.17307834e-01 2.35331655e-01
      2.35331655e-01 2.34181568e-01 1.48878053e-01 7.14652464e-02
      6.72873259e-02 6.74692690e-02 7.03817084e-02 1.55322731e-01
      2.35331655e-01 2.35331655e-01 1.40982360e-01 8.83701295e-02
      6.00351170e-02 4.94642667e-02 4.59764823e-02 7.66264126e-02
      1.47721738e-01 1.00865677e-01 1.26633093e-01 9.94389504e-02
      1.04925938e-01 1.56768009e-01 1.62652478e-01 2.48349890e-01
      2.48349890e-01 1.91383749e-01 1.10966973e-01 1.58976570e-01
      1.12717532e-01 8.64518806e-02 1.29476517e-01 1.68791607e-01
      2.48349890e-01 2.48349890e-01 1.17873579e-01 1.07455827e-01
      1.33126184e-01 1.10024005e-01 1.16235204e-01 1.70167655e-01
      2.09812462e-01 1.75512135e-01 1.38489649e-01 1.94139972e-01
      1.19044408e-01 1.39633119e-01 1.20605163e-01 1.21555030e-01
      1.53942466e-01 2.27423966e-01 2.48349890e-01 2.48349890e-01</_>
    <_>
      1.41912624e-01 9.87580270e-02 1.10727206e-01 9.48383287e-02
      1.42299309e-01 1.87136933e-01 2.16251001e-01 2.16251001e-01
      1.87017709e-01 1.27635032e-01 8.27140957e-02 8.10997784e-02
      6.98821694e-02 1.05655350e-01 1.25583068e-01 1.38500661e-01
      2.16251001e-01 2.16251001e-01 2.03972906e-01 2.16251001e-01
      2.16251001e-01 1.91210896e-01 1.64976403e-01 1.20022699e-01
      1.45062879e-01 2.07304388e-01 1.77575752e-01 1.76339641e-01
      1.93889126e-01 2.16251001e-01 1.82609737e-01 1.31252348e-01
      8.74096006e-02 1.25995636e-01 2.16251001e-01 2.08573103e-01
      1.46658227e-01 1.07853785e-01 9.34239477e-02 3.60142961e-02
      4.00689580e-02 4.80284952e-02 1.33207142e-01 2.79787362e-01
      2.79787362e-01 1.04706198e-01 5.04954942e-02 4.13987190e-02
      2.11628601e-02 2.78961882e-02 3.34562548e-02 1.02147810e-01
      2.79787362e-01 2.79787362e-01 2.13054433e-01 1.79617375e-01
      1.83687896e-01 9.73217636e-02 7.18593076e-02 1.02868408e-01
      1.87279046e-01 2.79787362e-01 2.79787362e-01 1.54539347e-01
      1.01755671e-01 1.05202332e-01 9.52923149e-02 7.14004040e-02
      1.08000316e-01 1.87866881e-01 2.79787362e-01 2.79787362e-01
      8.64513144e-02 5.92095107e-02 6.37803450e-02 1.09455876e-01
      1.72507048e-01 9.90729555e-02 1.42090321e-01 2.33788162e-01
      1.65519178e-01 1.03737637e-01 1.06019080e-01 2.33788162e-01
      1.87070921e-01 2.33788162e-01 2.02861935e-01 2.33788162e-01
      2.33788162e-01 1.69792891e-01 6.31723255e-02 4.39925976e-02
      9.70862508e-02 1.44044429e-01 1.85238764e-01 1.56030253e-01
      1.21038310e-01 2.33788162e-01 1.57608166e-01 1.03358433e-01
      1.13525152e-01 2.33788162e-01 2.33788162e-01 2.33788162e-01
      2.21013010e-01 1.42039984e-01 1.48378029e-01 1.25395760e-01
      2.18336657e-01 2.18336657e-01 2.18336657e-01 2.18336657e-01
      1.87926695e-01 9.91990268e-02 1.16648592e-01 2.07069695e-01
      2.10708380e-01 1.71588868e-01 2.02231139e-01 2.18336657e-01
      2.18336657e-01 1.72205985e-01 8.12972412e-02 1.21332094e-01
      2.07690105e-01 1.97150990e-01 1.08322054e-01 1.27557993e-01
      1.78703949e-01 2.18336657e-01 1.55280024e-01 7.45456740e-02
      7.72586018e-02 1.36392459e-01 1.55891791e-01 7.31365010e-02
      1.06521070e-01 2.18336657e-01 2.18336657e-01 1.75117508e-01
      9.16271880e-02 7.81373158e-02 1.01086766e-01 9.40563902e-02
      1.64886311e-01 1.44454166e-01 1.75808445e-01 1.26257583e-01
      1.05867997e-01 1.13841593e-01 1.60269186e-01 2.10204422e-01
      2.20408887e-01 1.28553689e-01 1.02676339e-01 1.38207391e-01
      1.38906687e-01 1.00585945e-01 1.26292646e-01 1.80844665e-01
      2.36464888e-01 2.36464888e-01 9.65294465e-02 8.62406269e-02
      1.32013917e-01 1.55100033e-01 1.53457195e-01 1.30854413e-01
